{"learner":{"attributes":{},"feature_names":["hour_of_day","C1","banner_pos","app_category","device_type","device_conn_type","C14","C17","C18","C19","C20","C21"],"feature_types":["int","int","int","int","int","int","int","int","int","int","int","int"],"gradient_booster":{"model":{"cats":{"enc":[],"feature_segments":[],"sorted_idx":[]},"gbtree_model_param":{"num_parallel_tree":"1","num_trees":"334"},"iteration_indptr":[0,1,2,3,4,5,6,7,8,9,10,11,12,13,14,15,16,17,18,19,20,21,22,23,24,25,26,27,28,29,30,31,32,33,34,35,36,37,38,39,40,41,42,43,44,45,46,47,48,49,50,51,52,53,54,55,56,57,58,59,60,61,62,63,64,65,66,67,68,69,70,71,72,73,74,75,76,77,78,79,80,81,82,83,84,85,86,87,88,89,90,91,92,93,94,95,96,97,98,99,100,101,102,103,104,105,106,107,108,109,110,111,112,113,114,115,116,117,118,119,120,121,122,123,124,125,126,127,128,129,130,131,132,133,134,135,136,137,138,139,140,141,142,143,144,145,146,147,148,149,150,151,152,153,154,155,156,157,158,159,160,161,162,163,164,165,166,167,168,169,170,171,172,173,174,175,176,177,178,179,180,181,182,183,184,185,186,187,188,189,190,191,192,193,194,195,196,197,198,199,200,201,202,203,204,205,206,207,208,209,210,211,212,213,214,215,216,217,218,219,220,221,222,223,224,225,226,227,228,229,230,231,232,233,234,235,236,237,238,239,240,241,242,243,244,245,246,247,248,249,250,251,252,253,254,255,256,257,258,259,260,261,262,263,264,265,266,267,268,269,270,271,272,273,274,275,276,277,278,279,280,281,282,283,284,285,286,287,288,289,290,291,292,293,294,295,296,297,298,299,300,301,302,303,304,305,306,307,308,309,310,311,312,313,314,315,316,317,318,319,320,321,322,323,324,325,326,327,328,329,330,331,332,333,334],"tree_info":[0,0,0,0,0,0,0,0,0,0,0,0,0,0,0,0,0,0,0,0,0,0,0,0,0,0,0,0,0,0,0,0,0,0,0,0,0,0,0,0,0,0,0,0,0,0,0,0,0,0,0,0,0,0,0,0,0,0,0,0,0,0,0,0,0,0,0,0,0,0,0,0,0,0,0,0,0,0,0,0,0,0,0,0,0,0,0,0,0,0,0,0,0,0,0,0,0,0,0,0,0,0,0,0,0,0,0,0,0,0,0,0,0,0,0,0,0,0,0,0,0,0,0,0,0,0,0,0,0,0,0,0,0,0,0,0,0,0,0,0,0,0,0,0,0,0,0,0,0,0,0,0,0,0,0,0,0,0,0,0,0,0,0,0,0,0,0,0,0,0,0,0,0,0,0,0,0,0,0,0,0,0,0,0,0,0,0,0,0,0,0,0,0,0,0,0,0,0,0,0,0,0,0,0,0,0,0,0,0,0,0,0,0,0,0,0,0,0,0,0,0,0,0,0,0,0,0,0,0,0,0,0,0,0,0,0,0,0,0,0,0,0,0,0,0,0,0,0,0,0,0,0,0,0,0,0,0,0,0,0,0,0,0,0,0,0,0,0,0,0,0,0,0,0,0,0,0,0,0,0,0,0,0,0,0,0,0,0,0,0,0,0,0,0,0,0,0,0,0,0,0,0,0,0,0,0,0,0,0,0,0,0,0,0,0,0,0,0,0,0,0,0,0,0,0,0,0,0,0,0,0,0,0,0],"trees":[{"base_weights":[1.2065453E-7,7.4462575E-1,-2.9977894E-1,6.166371E-1,1.636928E0,-1.5168682E-1,-8.388094E-1,7.6319945E-1,6.8512276E-2,6.223686E-1,2.024702E0,1.473135E0,-2.0104173E-1,-9.1585E-1,1.0035777E-2,6.2757516E-1,1.2537255E0,2.537248E-1,-4.9842182E-1,3.5922045E-1,9.3978655E-1,2.1620061E0,8.239125E-1,1.4989482E0,6.8304914E-1,-9.034169E-2,-4.613395E-1,-7.258162E-1,-9.5019776E-1,1.2981149E0,-1.19556785E-1,8.039104E-1,1.9807631E-1,1.5345196E0,1.912308E-2,3.92599E-1,-3.059443E-1,-2.6863968E-1,-5.9176433E-1,3.425866E-1,3.074151E-1,9.276383E-1,2.3161428E-1,2.2133307E0,1.3965975E-1,9.253702E-1,1.1149451E-2,1.2617364E0,1.5990789E0,9.884339E-1,1.5472786E-1,1.6999234E-1,-2.837008E-1,-5.979821E-1,1.8186639E-1,-5.9858185E-1,-7.776237E-1,-7.460834E-1,-9.562141E-1,1.6930772E0,1.2531904E0,-1.4338508E-1,3.6721065E0,2.8598083E-2,6.4652495E-2,2.046569E-2,-2.1813555E-2,1.02102436E-1,6.630533E-2,-2.9967716E-3,6.462456E-2,4.3672066E-2,3.5558622E-3,-4.2598136E-3,-4.7547117E-2,1.6019711E-3,-4.0933955E-2,-2.5101831E-2,-3.6922503E-2,2.1102622E-2,-4.0055405E-2,3.815547E-2,5.9298653E-2,1.07616745E-1,1.356346E-1,-4.8399544E-3,4.4066478E-2,6.7880504E-2,3.8891267E-2,2.0830942E-2,-2.9123371E-2,5.685867E-2,7.0168436E-2,3.5535555E-2,8.055593E-2,5.737135E-2,-6.422064E-3,1.2776263E-2,-2.6100947E-2,1.6736692E-2,-2.0525618E-2,-1.5718298E-2,1.2353136E-1,-4.4909344E-4,-3.3339746E-2,1.8971125E-2,-2.5220199E-2,-2.5986537E-2,-4.2237055E-2,-3.9973404E-2,-2.2427011E-2,-3.2170475E-2,-5.0693095E-2,-4.7818303E-2,1.3720465E-1,5.9771042E-2,9.4311275E-2,4.613587E-2,6.613212E-2,6.401326E-4,-2.9692436E-2,-3.1651158E-2,2.319008E-1],"categories":[],"categories_nodes":[],"categories_segments":[],"categories_sizes":[],"default_left":[0,0,0,0,0,0,0,0,0,0,0,0,0,0,0,0,0,0,0,0,0,0,0,0,0,0,0,0,0,0,0,0,0,0,0,0,0,0,0,0,0,0,0,0,0,0,0,0,0,0,0,0,0,0,0,0,0,0,0,0,0,0,0,0,0,0,0,0,0,0,0,0,0,0,0,0,0,0,0,0,0,0,0,0,0,0,0,0,0,0,0,0,0,0,0,0,0,0,0,0,0,0,0,0,0,0,0,0,0,0,0,0,0,0,0,0,0,0,0,0,0,0,0],"id":0,"left_children":[1,3,5,7,9,11,13,15,17,19,21,23,25,27,29,31,33,35,37,39,41,43,45,47,49,51,53,55,57,59,61,63,65,67,69,71,73,75,77,79,-1,81,-1,83,85,87,89,91,93,95,97,99,101,103,105,107,109,111,113,115,117,119,121,-1,-1,-1,-1,-1,-1,-1,-1,-1,-1,-1,-1,-1,-1,-1,-1,-1,-1,-1,-1,-1,-1,-1,-1,-1,-1,-1,-1,-1,-1,-1,-1,-1,-1,-1,-1,-1,-1,-1,-1,-1,-1,-1,-1,-1,-1,-1,-1,-1,-1,-1,-1,-1,-1,-1,-1,-1,-1,-1,-1],"loss_changes":[2.9193722E5,4.287022E4,7.44327E4,2.637386E4,1.8524703E4,5.8659367E4,1.3142125E4,1.7232266E4,7.2731616E3,1.0874194E3,5.6150938E3,4.3876953E2,2.0456033E4,1.2018906E3,2.7915896E3,1.5369055E4,1.945039E4,4.0580183E3,3.6567578E2,6.836676E2,2.604546E2,3.1728906E3,2.883872E2,4.9394922E2,1.10216644E2,2.5072676E4,1.8617383E4,1.8546973E2,1.9092188E2,2.5003662E1,1.3733685E3,1.6321602E4,7.915049E3,4.832336E3,1.0467732E3,6.4661475E3,1.4778538E3,8.1521265E2,1.5926172E2,6.4582574E2,0E0,2.491836E2,0E0,9.023125E2,1.3297195E2,1.9723462E2,9.390649E1,1.0783301E2,1.5586328E2,7.709335E1,1.730709E1,2.0301104E4,2.4140615E4,7.081172E3,5.032306E3,1.5807129E2,1.4371484E2,1.22302246E2,8.7859375E1,1.2478424E1,3.037207E1,1.062465E3,3.976975E2,0E0,0E0,0E0,0E0,0E0,0E0,0E0,0E0,0E0,0E0,0E0,0E0,0E0,0E0,0E0,0E0,0E0,0E0,0E0,0E0,0E0,0E0,0E0,0E0,0E0,0E0,0E0,0E0,0E0,0E0,0E0,0E0,0E0,0E0,0E0,0E0,0E0,0E0,0E0,0E0,0E0,0E0,0E0,0E0,0E0,0E0,0E0,0E0,0E0,0E0,0E0,0E0,0E0,0E0,0E0,0E0,0E0,0E0,0E0,0E0],"parents":[2147483647,0,0,1,1,2,2,3,3,4,4,5,5,6,6,7,7,8,8,9,9,10,10,11,11,12,12,13,13,14,14,15,15,16,16,17,17,18,18,19,19,20,20,21,21,22,22,23,23,24,24,25,25,26,26,27,27,28,28,29,29,30,30,31,31,32,32,33,33,34,34,35,35,36,36,37,37,38,38,39,39,41,41,43,43,44,44,45,45,46,46,47,47,48,48,49,49,50,50,51,51,52,52,53,53,54,54,55,55,56,56,57,57,58,58,59,59,60,60,61,61,62,62],"right_children":[2,4,6,8,10,12,14,16,18,20,22,24,26,28,30,32,34,36,38,40,42,44,46,48,50,52,54,56,58,60,62,64,66,68,70,72,74,76,78,80,-1,82,-1,84,86,88,90,92,94,96,98,100,102,104,106,108,110,112,114,116,118,120,122,-1,-1,-1,-1,-1,-1,-1,-1,-1,-1,-1,-1,-1,-1,-1,-1,-1,-1,-1,-1,-1,-1,-1,-1,-1,-1,-1,-1,-1,-1,-1,-1,-1,-1,-1,-1,-1,-1,-1,-1,-1,-1,-1,-1,-1,-1,-1,-1,-1,-1,-1,-1,-1,-1,-1,-1,-1,-1,-1,-1],"split_conditions":[9E0,3.4E1,1.41E2,8.97E2,7.3E1,1E0,1.53E2,3.64E2,1.8E1,1.2E1,1E0,4.9E1,5E0,1E0,2E0,1.71E2,2.1E1,1.25E2,3E0,8E0,8E0,9E0,2E0,1.44E2,1E1,1E0,3.1E1,1E1,5E0,1.62E2,5E0,2.1E1,2.7E1,3E0,3E1,3E0,2E0,9E0,1E1,5.8E1,3.074151E-1,1.7E1,2.3161428E-1,3.1E1,9.97E2,3.07E2,1.74E2,6E0,1E0,1.795E3,1.9E1,5E0,5E0,2.32E2,1E0,1.034E3,1.46E2,5E0,3E0,1.25E2,1.3E1,1.7E1,1E0,2.8598083E-2,6.4652495E-2,2.046569E-2,-2.1813555E-2,1.02102436E-1,6.630533E-2,-2.9967716E-3,6.462456E-2,4.3672066E-2,3.5558622E-3,-4.2598136E-3,-4.7547117E-2,1.6019711E-3,-4.0933955E-2,-2.5101831E-2,-3.6922503E-2,2.1102622E-2,-4.0055405E-2,3.815547E-2,5.9298653E-2,1.07616745E-1,1.356346E-1,-4.8399544E-3,4.4066478E-2,6.7880504E-2,3.8891267E-2,2.0830942E-2,-2.9123371E-2,5.685867E-2,7.0168436E-2,3.5535555E-2,8.055593E-2,5.737135E-2,-6.422064E-3,1.2776263E-2,-2.6100947E-2,1.6736692E-2,-2.0525618E-2,-1.5718298E-2,1.2353136E-1,-4.4909344E-4,-3.3339746E-2,1.8971125E-2,-2.5220199E-2,-2.5986537E-2,-4.2237055E-2,-3.9973404E-2,-2.2427011E-2,-3.2170475E-2,-5.0693095E-2,-4.7818303E-2,1.3720465E-1,5.9771042E-2,9.4311275E-2,4.613587E-2,6.613212E-2,6.401326E-4,-2.9692436E-2,-3.1651158E-2,2.319008E-1],"split_indices":[11,3,10,6,7,4,10,6,3,0,5,11,3,5,3,6,3,10,8,11,11,9,5,7,0,8,3,0,9,10,2,3,10,8,3,8,5,9,10,7,0,0,0,10,6,6,7,10,9,6,0,1,2,6,5,6,10,3,2,7,9,3,5,0,0,0,0,0,0,0,0,0,0,0,0,0,0,0,0,0,0,0,0,0,0,0,0,0,0,0,0,0,0,0,0,0,0,0,0,0,0,0,0,0,0,0,0,0,0,0,0,0,0,0,0,0,0,0,0,0,0,0,0],"split_type":[0,0,0,0,0,0,0,0,0,0,0,0,0,0,0,0,0,0,0,0,0,0,0,0,0,0,0,0,0,0,0,0,0,0,0,0,0,0,0,0,0,0,0,0,0,0,0,0,0,0,0,0,0,0,0,0,0,0,0,0,0,0,0,0,0,0,0,0,0,0,0,0,0,0,0,0,0,0,0,0,0,0,0,0,0,0,0,0,0,0,0,0,0,0,0,0,0,0,0,0,0,0,0,0,0,0,0,0,0,0,0,0,0,0,0,0,0,0,0,0,0,0,0],"sum_hessian":[1.3078245E6,3.7538894E5,9.3243556E5,3.283004E5,4.7088543E4,7.314733E5,2.0096225E5,2.590366E5,6.926382E4,1.3021673E4,3.406687E4,2.1563062E4,7.0991025E5,1.8424061E5,1.6721639E4,2.02931E5,5.6105594E4,5.2208348E4,1.7055469E4,7.120618E3,5.901055E3,3.0570492E4,3.4963774E3,2.0879988E4,6.830753E2,4.980849E5,2.1182536E5,2.820647E4,1.5603414E5,1.5277384E3,1.51939E4,1.4386489E5,5.90661E4,4.5709355E4,1.0396234E4,4.1829285E4,1.03790625E4,4.928011E3,1.2127458E4,7.101273E3,1.9345009E1,5.882951E3,1.8103617E1,2.981376E4,7.567312E2,3.1082358E3,3.8814154E2,6.2016787E3,1.467831E4,4.3231436E2,2.5076096E2,2.1227847E5,2.8580647E5,1.7471005E5,3.7115312E4,8.1654556E3,2.0041014E4,4.471076E3,1.5156306E5,1.5227728E2,1.375461E3,1.5099969E4,9.393191E1,9.7590086E4,4.6274812E4,4.431093E4,1.4755172E4,1.3303572E4,3.2405785E4,9.789401E3,6.0683325E2,1.675981E4,2.5069475E4,7.733451E3,2.6456108E3,3.1868572E3,1.7411542E3,7.5273804E3,4.600077E3,6.6405103E3,4.607629E2,3.5964128E3,2.2865386E3,2.6573213E4,3.2405474E3,5.744536E2,1.8227756E2,7.8890393E2,2.319332E3,2.3079526E2,1.573463E2,3.304479E3,2.8971995E3,1.970708E2,1.4481238E4,3.7841733E2,5.3897053E1,2.1879515E2,3.1965815E1,1.6535327E5,4.6925195E4,2.8266038E5,3.1460984E3,1.8276273E4,1.5643377E5,2.881951E4,8.295802E3,6.1867817E3,1.9786736E3,1.8792176E4,1.2488392E3,3.2343406E3,1.2367357E3,1.5155758E5,5.4828095E0,4.4586624E1,1.0769066E2,2.4134708E2,1.134114E3,1.121307E4,3.8868982E3,1.7276024E1,7.665588E1],"tree_param":{"num_deleted":"0","num_feature":"12","num_nodes":"123","size_leaf_vector":"1"}},{"base_weights":[-5.66592E-4,6.864167E-1,-2.8841528E-1,5.713634E-1,1.4582082E0,-1.4518584E-1,-8.2377064E-1,7.033256E-1,6.461654E-2,5.7682353E-1,1.777771E0,1.3214362E0,-1.9265442E-1,-9.0212774E-1,9.226377E-3,5.814974E-1,1.1336056E0,2.3840688E-1,-4.8295543E-1,3.3633488E-1,8.606047E-1,1.8886998E0,7.577465E-1,1.3432963E0,6.3150215E-1,-8.625875E-2,-4.4642162E-1,-7.095768E-1,-9.3723446E-1,1.1751927E0,-1.1402711E-1,7.3994625E-1,1.8657638E-1,1.3731704E0,1.8061148E-2,3.6710235E-1,-2.942885E-1,-2.5806454E-1,-5.754616E-1,4.104482E-1,-7.855472E-1,8.4987175E-1,1.8656565E-1,1.9299393E0,1.3182981E-1,8.4786934E-1,1.0335278E-2,1.1411518E0,1.4275506E0,9.034252E-1,1.4597416E-1,1.6032071E-1,-2.7261403E-1,-5.816671E-1,1.7140426E-1,-5.8225435E-1,-7.617806E-1,-7.299885E-1,-9.4339323E-1,1.519031E0,1.1362922E0,4.1116882E-2,-5.763128E-1,2.7513409E-2,6.071777E-2,1.9133074E-2,-2.1082187E-2,8.96159E-2,5.9819132E-2,-2.8536709E-3,5.8388103E-2,4.0096793E-2,3.3686631E-3,-4.0604193E-3,-4.690003E-2,1.519983E-3,-4.0165525E-2,-2.4323404E-2,-3.611402E-2,1.4105352E-2,6.716409E-2,-4.406341E-2,2.8867355E-2,3.5183012E-2,5.379051E-2,9.405833E-2,1.160527E-1,-4.615887E-3,4.0465415E-2,6.1173655E-2,3.5841428E-2,1.9474734E-2,-2.83153E-2,5.1673945E-2,6.311799E-2,6.977065E-2,8.529594E-2,5.2130938E-2,-6.137164E-3,1.2019822E-2,-2.5335843E-2,1.5692571E-2,-1.9817233E-2,-1.5118337E-2,1.06671505E-1,-4.2678026E-4,-3.251707E-2,1.7756572E-2,-2.4440384E-2,-2.519833E-2,-4.1486982E-2,-3.9192703E-2,-2.1686135E-2,-3.1347852E-2,-5.0128676E-2,-4.717744E-2,1.2007028E-1,5.3991593E-2,8.363491E-2,3.254916E-2,5.8647085E-2,6.2112894E-4,1.532093E-1,-3.486542E-2,1.0879972E-2],"categories":[],"categories_nodes":[],"categories_segments":[],"categories_sizes":[],"default_left":[0,0,0,0,0,0,0,0,0,0,0,0,0,0,0,0,0,0,0,0,0,0,0,0,0,0,0,0,0,0,0,0,0,0,0,0,0,0,0,0,0,0,0,0,0,0,0,0,0,0,0,0,0,0,0,0,0,0,0,0,0,0,0,0,0,0,0,0,0,0,0,0,0,0,0,0,0,0,0,0,0,0,0,0,0,0,0,0,0,0,0,0,0,0,0,0,0,0,0,0,0,0,0,0,0,0,0,0,0,0,0,0,0,0,0,0,0,0,0,0,0,0,0,0,0],"id":1,"left_children":[1,3,5,7,9,11,13,15,17,19,21,23,25,27,29,31,33,35,37,39,41,43,45,47,49,51,53,55,57,59,61,63,65,67,69,71,73,75,77,79,81,83,-1,85,87,89,91,93,95,97,99,101,103,105,107,109,111,113,115,117,119,121,123,-1,-1,-1,-1,-1,-1,-1,-1,-1,-1,-1,-1,-1,-1,-1,-1,-1,-1,-1,-1,-1,-1,-1,-1,-1,-1,-1,-1,-1,-1,-1,-1,-1,-1,-1,-1,-1,-1,-1,-1,-1,-1,-1,-1,-1,-1,-1,-1,-1,-1,-1,-1,-1,-1,-1,-1,-1,-1,-1,-1,-1,-1],"loss_changes":[2.5869064E5,3.429992E4,7.069039E4,2.248014E4,1.41136875E4,5.0635125E4,1.2700953E4,1.3980609E4,6.6097817E3,9.0985254E2,4.1599766E3,3.430586E2,1.9021768E4,1.2016094E3,2.4045889E3,1.3006867E4,1.5727953E4,3.614608E3,3.4797754E2,6.006688E2,1.8529541E2,2.4029844E3,2.4308887E2,3.7479297E2,9.257422E1,2.2810215E4,1.7390344E4,1.8188281E2,1.9132812E2,1.9669922E1,1.085354E3,1.3348125E4,7.09867E3,3.5878672E3,8.988995E2,5.5345063E3,1.4071669E3,7.6739856E2,1.545564E2,8.1056067E2,5.8924225E1,2.0060107E2,0E0,6.138594E2,1.1576123E2,1.5764136E2,8.534947E1,8.3615234E1,1.3713867E2,6.439075E1,1.5730684E1,1.8261771E4,2.023994E4,6.72041E3,4.534046E3,1.5421143E2,1.4051367E2,1.2141821E2,7.8296875E1,8.966339E0,2.486731E1,9.828837E2,3.6542175E2,0E0,0E0,0E0,0E0,0E0,0E0,0E0,0E0,0E0,0E0,0E0,0E0,0E0,0E0,0E0,0E0,0E0,0E0,0E0,0E0,0E0,0E0,0E0,0E0,0E0,0E0,0E0,0E0,0E0,0E0,0E0,0E0,0E0,0E0,0E0,0E0,0E0,0E0,0E0,0E0,0E0,0E0,0E0,0E0,0E0,0E0,0E0,0E0,0E0,0E0,0E0,0E0,0E0,0E0,0E0,0E0,0E0,0E0,0E0,0E0,0E0,0E0],"parents":[2147483647,0,0,1,1,2,2,3,3,4,4,5,5,6,6,7,7,8,8,9,9,10,10,11,11,12,12,13,13,14,14,15,15,16,16,17,17,18,18,19,19,20,20,21,21,22,22,23,23,24,24,25,25,26,26,27,27,28,28,29,29,30,30,31,31,32,32,33,33,34,34,35,35,36,36,37,37,38,38,39,39,40,40,41,41,43,43,44,44,45,45,46,46,47,47,48,48,49,49,50,50,51,51,52,52,53,53,54,54,55,55,56,56,57,57,58,58,59,59,60,60,61,61,62,62],"right_children":[2,4,6,8,10,12,14,16,18,20,22,24,26,28,30,32,34,36,38,40,42,44,46,48,50,52,54,56,58,60,62,64,66,68,70,72,74,76,78,80,82,84,-1,86,88,90,92,94,96,98,100,102,104,106,108,110,112,114,116,118,120,122,124,-1,-1,-1,-1,-1,-1,-1,-1,-1,-1,-1,-1,-1,-1,-1,-1,-1,-1,-1,-1,-1,-1,-1,-1,-1,-1,-1,-1,-1,-1,-1,-1,-1,-1,-1,-1,-1,-1,-1,-1,-1,-1,-1,-1,-1,-1,-1,-1,-1,-1,-1,-1,-1,-1,-1,-1,-1,-1,-1,-1,-1,-1],"split_conditions":[9E0,3.4E1,1.41E2,8.97E2,7.3E1,1E0,1.53E2,3.64E2,1.8E1,1.2E1,1E0,4.9E1,5E0,1E0,1E0,1.71E2,2.1E1,1.25E2,3E0,5.8E1,8E0,9E0,2E0,1.44E2,1E1,1E0,3.1E1,1E1,5E0,1.62E2,1.7E1,2.2E1,2.7E1,3E0,3E1,3E0,2E0,9E0,1E1,3E1,2E0,1.7E1,1.8656565E-1,3.1E1,9.97E2,3.07E2,1.74E2,6E0,1.962E3,1.795E3,1.9E1,5E0,5E0,2.32E2,1E0,1.034E3,1.46E2,5E0,3E0,1.25E2,7.17E2,5E0,3.1E1,2.7513409E-2,6.071777E-2,1.9133074E-2,-2.1082187E-2,8.96159E-2,5.9819132E-2,-2.8536709E-3,5.8388103E-2,4.0096793E-2,3.3686631E-3,-4.0604193E-3,-4.690003E-2,1.519983E-3,-4.0165525E-2,-2.4323404E-2,-3.611402E-2,1.4105352E-2,6.716409E-2,-4.406341E-2,2.8867355E-2,3.5183012E-2,5.379051E-2,9.405833E-2,1.160527E-1,-4.615887E-3,4.0465415E-2,6.1173655E-2,3.5841428E-2,1.9474734E-2,-2.83153E-2,5.1673945E-2,6.311799E-2,6.977065E-2,8.529594E-2,5.2130938E-2,-6.137164E-3,1.2019822E-2,-2.5335843E-2,1.5692571E-2,-1.9817233E-2,-1.5118337E-2,1.06671505E-1,-4.2678026E-4,-3.251707E-2,1.7756572E-2,-2.4440384E-2,-2.519833E-2,-4.1486982E-2,-3.9192703E-2,-2.1686135E-2,-3.1347852E-2,-5.0128676E-2,-4.717744E-2,1.2007028E-1,5.3991593E-2,8.363491E-2,3.254916E-2,5.8647085E-2,6.2112894E-4,1.532093E-1,-3.486542E-2,1.0879972E-2],"split_indices":[11,3,10,6,7,4,10,6,3,0,5,11,3,5,3,6,3,10,8,7,11,9,5,7,0,8,3,0,9,10,3,3,10,8,3,8,5,9,10,10,5,0,0,10,6,6,7,10,6,6,0,1,2,6,5,6,10,3,2,7,6,2,3,0,0,0,0,0,0,0,0,0,0,0,0,0,0,0,0,0,0,0,0,0,0,0,0,0,0,0,0,0,0,0,0,0,0,0,0,0,0,0,0,0,0,0,0,0,0,0,0,0,0,0,0,0,0,0,0,0,0,0,0,0,0],"split_type":[0,0,0,0,0,0,0,0,0,0,0,0,0,0,0,0,0,0,0,0,0,0,0,0,0,0,0,0,0,0,0,0,0,0,0,0,0,0,0,0,0,0,0,0,0,0,0,0,0,0,0,0,0,0,0,0,0,0,0,0,0,0,0,0,0,0,0,0,0,0,0,0,0,0,0,0,0,0,0,0,0,0,0,0,0,0,0,0,0,0,0,0,0,0,0,0,0,0,0,0,0,0,0,0,0,0,0,0,0,0,0,0,0,0,0,0,0,0,0,0,0,0,0,0,0],"sum_hessian":[1.3081864E6,3.8628128E5,9.219051E5,3.3616925E5,5.0112023E4,7.273189E5,1.9458625E5,2.6671378E5,6.945547E4,1.3335166E4,3.677686E4,2.280148E4,7.045174E5,1.7785588E5,1.6730365E4,2.0786252E5,5.8851273E4,5.272271E4,1.6732758E4,7.2193545E3,6.115812E3,3.316886E4,3.6079993E3,2.21003E4,7.0117926E2,4.9639694E5,2.0812044E5,2.7430127E4,1.5042575E5,1.5986598E3,1.5131705E4,1.4834367E5,5.951884E4,4.844698E4,1.0404293E4,4.246401E4,1.0258698E4,4.87791E3,1.1854848E4,6.772581E3,4.4677325E2,6.0943228E3,2.1489359E1,3.2408037E4,7.608216E2,3.2196409E3,3.883584E2,6.5058594E3,1.559444E4,4.4890588E2,2.5227333E2,2.1367242E5,2.8272453E5,1.7074375E5,3.7376695E4,7.9798447E3,1.9450281E4,4.3446562E3,1.460811E5,1.5861607E2,1.4400437E3,1.1330184E4,3.8015212E3,1.0597495E5,4.236872E4,4.500876E4,1.4510077E4,1.4369377E4,3.40776E4,9.766959E3,6.3733405E2,1.7326227E4,2.5137785E4,7.708255E3,2.5504429E3,3.1907676E3,1.6871423E3,7.383615E3,4.4712324E3,5.954633E3,8.1794806E2,4.1778415E2,2.8989105E1,3.702463E3,2.3918596E3,2.881995E4,3.5880874E3,5.723276E2,1.8849405E2,8.30586E2,2.3890547E3,2.3449515E2,1.5386324E2,3.4503398E3,3.0555198E3,1.3985797E4,1.6086438E3,3.9527344E2,5.3632465E1,2.2094217E2,3.1331163E1,1.674809E5,4.6191516E4,2.7927197E5,3.4525544E3,1.8269986E4,1.5247375E5,2.9240076E4,8.136618E3,6.0644844E3,1.9153605E3,1.8222768E4,1.2275149E3,3.155314E3,1.1893423E3,1.4607502E5,6.077844E0,4.319285E1,1.1542322E2,1.0243048E2,1.3376132E3,1.12246455E4,1.0553775E2,3.2988794E3,5.026418E2],"tree_param":{"num_deleted":"0","num_feature":"12","num_nodes":"125","size_leaf_vector":"1"}},{"base_weights":[-1.0296322E-3,6.346667E-1,-2.7740267E-1,5.3062546E-1,1.3104497E0,-1.3893235E-1,-8.088471E-1,6.500259E-1,6.097719E-2,5.356997E-1,1.5794338E0,1.1936764E0,-1.845687E-1,-8.885079E-1,8.508074E-3,5.399636E-1,1.0309622E0,2.2420138E-1,-4.6776032E-1,3.1516036E-1,7.9092777E-1,1.6713752E0,6.9901586E-1,1.0753766E0,1.2911357E0,-8.2490504E-2,-4.3217412E-1,-6.9344485E-1,-9.243942E-1,1.0655173E0,-1.09205745E-1,6.8305415E-1,1.7584644E-1,1.2380341E0,1.7069828E-2,3.4367812E-1,-2.8298175E-1,-2.4783215E-1,-5.593499E-1,3.836285E-1,-7.7011865E-1,7.34222E-1,1.2183475E0,1.7053828E0,1.245039E-1,7.7957666E-1,9.583133E-3,1.1431968E0,6.0252154E-1,1.5556782E0,1.2485485E0,1.5156305E-1,-2.6229885E-1,-5.6633323E-1,1.6163091E-1,-5.470474E-1,-7.391905E-1,-7.139961E-1,-9.3069965E-1,1.3770461E0,1.0302396E0,3.8685575E-2,-5.6025064E-1,2.4657829E-2,5.3226847E-2,1.7392479E-2,-2.221762E-2,7.957833E-2,5.428661E-2,-2.7170926E-3,5.3052157E-2,3.6930826E-2,3.1917922E-3,-3.8697743E-3,-4.625907E-2,1.4422876E-3,-3.9400835E-2,-2.3557613E-2,-3.5310324E-2,1.3253632E-2,6.0588516E-2,-4.5496285E-2,8.017468E-3,3.0039383E-2,4.7540914E-2,1.1054577E-1,3.4684446E-2,8.621692E-2,4.8671007E-2,-4.4014356E-3,3.7276182E-2,5.5466484E-2,3.3119265E-2,1.8227562E-2,-2.751695E-2,4.9620476E-2,6.544431E-2,4.2392325E-2,1.7108656E-2,2.1231439E-2,7.824098E-2,6.0302522E-2,7.1580164E-2,1.4736905E-2,-1.9113302E-2,-1.4557141E-2,9.361633E-2,-4.4963774E-4,-3.1724177E-2,1.663678E-2,-2.3673123E-2,-2.2961836E-2,-4.135743E-2,-3.8195252E-2,-2.186687E-2,-3.0532757E-2,-4.9574014E-2,-4.654294E-2,1.06413715E-1,6.987951E-2,-3.3021335E-2,2.5419643E-2,5.3275473E-2,5.76484E-4,1.3047796E-1,-3.405374E-2,1.0248657E-2],"categories":[],"categories_nodes":[],"categories_segments":[],"categories_sizes":[],"default_left":[0,0,0,0,0,0,0,0,0,0,0,0,0,0,0,0,0,0,0,0,0,0,0,0,0,0,0,0,0,0,0,0,0,0,0,0,0,0,0,0,0,0,0,0,0,0,0,0,0,0,0,0,0,0,0,0,0,0,0,0,0,0,0,0,0,0,0,0,0,0,0,0,0,0,0,0,0,0,0,0,0,0,0,0,0,0,0,0,0,0,0,0,0,0,0,0,0,0,0,0,0,0,0,0,0,0,0,0,0,0,0,0,0,0,0,0,0,0,0,0,0,0,0,0,0,0,0],"id":2,"left_children":[1,3,5,7,9,11,13,15,17,19,21,23,25,27,29,31,33,35,37,39,41,43,45,47,49,51,53,55,57,59,61,63,65,67,69,71,73,75,77,79,81,83,85,87,89,91,93,95,97,99,101,103,105,107,109,111,113,115,117,119,121,123,125,-1,-1,-1,-1,-1,-1,-1,-1,-1,-1,-1,-1,-1,-1,-1,-1,-1,-1,-1,-1,-1,-1,-1,-1,-1,-1,-1,-1,-1,-1,-1,-1,-1,-1,-1,-1,-1,-1,-1,-1,-1,-1,-1,-1,-1,-1,-1,-1,-1,-1,-1,-1,-1,-1,-1,-1,-1,-1,-1,-1,-1,-1,-1,-1],"loss_changes":[2.298156E5,2.7867875E4,6.709186E4,1.9261602E4,1.1019445E4,4.398562E4,1.2270109E4,1.1481695E4,6.009085E3,7.6694385E2,3.1762266E3,2.7472656E2,1.767519E4,1.201375E3,2.0825388E3,1.10703125E4,1.2888391E4,3.2240442E3,3.3069824E2,5.4373645E2,1.5222095E2,1.8694141E3,2.0623206E2,3.46417E2,1.459336E2,2.0839322E4,1.6262801E4,1.7831152E2,1.9174219E2,1.7013428E1,1.0046247E3,1.10494375E4,6.3947725E3,2.7430703E3,7.7631464E2,4.758998E3,1.3392314E3,7.220081E2,1.4984497E2,6.7517535E2,5.6647858E1,1.6069653E2,3.8301514E2,4.8082812E2,1.0111782E2,1.2774756E2,7.76183E1,2.351709E2,8.656012E1,1.8111816E1,8.626758E1,1.6443184E4,1.7242836E4,6.324867E3,4.0885022E3,1.5598193E2,1.5132715E2,1.2052661E2,7.052344E1,7.93985E0,2.7260498E1,7.9183636E2,3.439696E2,0E0,0E0,0E0,0E0,0E0,0E0,0E0,0E0,0E0,0E0,0E0,0E0,0E0,0E0,0E0,0E0,0E0,0E0,0E0,0E0,0E0,0E0,0E0,0E0,0E0,0E0,0E0,0E0,0E0,0E0,0E0,0E0,0E0,0E0,0E0,0E0,0E0,0E0,0E0,0E0,0E0,0E0,0E0,0E0,0E0,0E0,0E0,0E0,0E0,0E0,0E0,0E0,0E0,0E0,0E0,0E0,0E0,0E0,0E0,0E0,0E0,0E0,0E0,0E0],"parents":[2147483647,0,0,1,1,2,2,3,3,4,4,5,5,6,6,7,7,8,8,9,9,10,10,11,11,12,12,13,13,14,14,15,15,16,16,17,17,18,18,19,19,20,20,21,21,22,22,23,23,24,24,25,25,26,26,27,27,28,28,29,29,30,30,31,31,32,32,33,33,34,34,35,35,36,36,37,37,38,38,39,39,40,40,41,41,42,42,43,43,44,44,45,45,46,46,47,47,48,48,49,49,50,50,51,51,52,52,53,53,54,54,55,55,56,56,57,57,58,58,59,59,60,60,61,61,62,62],"right_children":[2,4,6,8,10,12,14,16,18,20,22,24,26,28,30,32,34,36,38,40,42,44,46,48,50,52,54,56,58,60,62,64,66,68,70,72,74,76,78,80,82,84,86,88,90,92,94,96,98,100,102,104,106,108,110,112,114,116,118,120,122,124,126,-1,-1,-1,-1,-1,-1,-1,-1,-1,-1,-1,-1,-1,-1,-1,-1,-1,-1,-1,-1,-1,-1,-1,-1,-1,-1,-1,-1,-1,-1,-1,-1,-1,-1,-1,-1,-1,-1,-1,-1,-1,-1,-1,-1,-1,-1,-1,-1,-1,-1,-1,-1,-1,-1,-1,-1,-1,-1,-1,-1,-1,-1,-1,-1],"split_conditions":[9E0,3.4E1,1.41E2,8.97E2,7.3E1,1E0,1.53E2,3.64E2,1.8E1,1.2E1,1E0,1E1,7E0,1E0,2E0,1.71E2,2.1E1,1.25E2,3E0,5.8E1,6.4E1,9E0,2E0,3.5E1,1.1E1,1E0,3.1E1,9E0,5E0,1.8E1,1.7E1,2.1E1,3.3E1,3E0,3E1,3E0,2E0,9E0,1E1,3E1,1E0,1.7E1,9.6E1,9E1,9.97E2,3.07E2,1.74E2,1.71E2,2E0,1.6E1,1.01E2,4E0,5E0,2.32E2,1E0,1.034E3,1.46E2,5E0,3E0,1E0,7.17E2,5E0,3.1E1,2.4657829E-2,5.3226847E-2,1.7392479E-2,-2.221762E-2,7.957833E-2,5.428661E-2,-2.7170926E-3,5.3052157E-2,3.6930826E-2,3.1917922E-3,-3.8697743E-3,-4.625907E-2,1.4422876E-3,-3.9400835E-2,-2.3557613E-2,-3.5310324E-2,1.3253632E-2,6.0588516E-2,-4.5496285E-2,8.017468E-3,3.0039383E-2,4.7540914E-2,1.1054577E-1,3.4684446E-2,8.621692E-2,4.8671007E-2,-4.4014356E-3,3.7276182E-2,5.5466484E-2,3.3119265E-2,1.8227562E-2,-2.751695E-2,4.9620476E-2,6.544431E-2,4.2392325E-2,1.7108656E-2,2.1231439E-2,7.824098E-2,6.0302522E-2,7.1580164E-2,1.4736905E-2,-1.9113302E-2,-1.4557141E-2,9.361633E-2,-4.4963774E-4,-3.1724177E-2,1.663678E-2,-2.3673123E-2,-2.2961836E-2,-4.135743E-2,-3.8195252E-2,-2.186687E-2,-3.0532757E-2,-4.9574014E-2,-4.654294E-2,1.06413715E-1,6.987951E-2,-3.3021335E-2,2.5419643E-2,5.3275473E-2,5.76484E-4,1.3047796E-1,-3.405374E-2,1.0248657E-2],"split_indices":[11,3,10,6,7,4,10,6,3,0,5,9,3,5,3,6,3,10,8,7,10,9,5,11,9,8,3,0,9,11,3,3,10,8,3,8,5,9,10,10,5,0,10,10,6,6,7,7,9,11,10,1,2,6,5,6,10,3,2,5,6,2,3,0,0,0,0,0,0,0,0,0,0,0,0,0,0,0,0,0,0,0,0,0,0,0,0,0,0,0,0,0,0,0,0,0,0,0,0,0,0,0,0,0,0,0,0,0,0,0,0,0,0,0,0,0,0,0,0,0,0,0,0,0,0,0,0],"split_type":[0,0,0,0,0,0,0,0,0,0,0,0,0,0,0,0,0,0,0,0,0,0,0,0,0,0,0,0,0,0,0,0,0,0,0,0,0,0,0,0,0,0,0,0,0,0,0,0,0,0,0,0,0,0,0,0,0,0,0,0,0,0,0,0,0,0,0,0,0,0,0,0,0,0,0,0,0,0,0,0,0,0,0,0,0,0,0,0,0,0,0,0,0,0,0,0,0,0,0,0,0,0,0,0,0,0,0,0,0,0,0,0,0,0,0,0,0,0,0,0,0,0,0,0,0,0,0],"sum_hessian":[1.3080775E6,3.9637003E5,9.1170744E5,3.4348938E5,5.288066E4,7.2325994E5,1.8844745E5,2.7386362E5,6.962575E4,1.362882E4,3.925184E4,2.3947697E4,6.9931225E5,1.7171203E5,1.6735422E4,2.124762E5,6.138742E4,5.320244E4,1.642331E4,7.3124556E3,6.3163643E3,3.5539574E4,3.7122651E3,1.0822719E4,1.3124979E4,4.9517288E5,2.0413939E5,2.668478E4,1.4502725E5,1.6761759E3,1.5059245E4,1.52533E5,5.994321E4,5.0976117E4,1.0411305E4,4.3059312E4,1.0143126E4,4.8297197E3,1.1593592E4,6.8791123E3,4.3334314E2,5.578926E3,7.3743854E2,3.4774953E4,7.646226E2,3.323751E3,3.8851407E2,9.463921E3,1.3587983E3,1.8150066E3,1.1309973E4,2.1513514E5,2.8003772E5,1.6651786E5,3.762154E4,6.35623E3,2.0328549E4,4.223234E3,1.4080402E5,1.6663449E2,1.5095414E3,1.1341455E4,3.7177903E3,1.0184037E5,5.0692633E4,4.6928664E4,1.3014546E4,1.5345571E4,3.5630547E4,9.745616E3,6.6568866E2,1.7856703E4,2.5202611E4,7.684288E3,2.4588376E3,3.1944805E3,1.6352391E3,7.246044E3,4.3475483E3,6.018789E3,8.6032306E2,3.7675595E2,5.6587196E1,3.4545317E3,2.124394E3,2.5389572E2,4.8354282E2,3.38958E4,8.7915186E2,5.7030457E2,1.9431802E2,8.6928656E2,2.4544644E3,2.3798811E2,1.5052597E2,4.9584375E3,4.5054834E3,6.984223E2,6.6037604E2,1.4932135E1,1.8000745E3,9.185132E3,2.1248403E3,1.6963802E5,4.5497125E4,2.7630503E5,3.73269E3,1.8143064E4,1.483748E5,2.963725E4,7.984289E3,4.841178E3,1.515052E3,1.8788678E4,1.5398711E3,3.0795466E3,1.1436873E3,1.4079739E5,6.6278906E0,1.6528198E2,1.3525008E0,9.654172E1,1.4129998E3,1.1223902E4,1.1755253E2,3.2109165E3,5.068738E2],"tree_param":{"num_deleted":"0","num_feature":"12","num_nodes":"127","size_leaf_vector":"1"}},{"base_weights":[-1.4095582E-3,5.8834267E-1,-2.667329E-1,4.9378133E-1,1.1860043E0,-1.3291968E-1,-7.9401994E-1,6.0228014E-1,5.75722E-2,4.984247E-1,1.4162363E0,1.0845217E0,-1.7677677E-1,-8.7496626E-1,7.857905E-3,5.0235355E-1,9.4217384E-1,2.1100199E-1,-4.5283803E-1,2.6682493E-1,7.0239854E-1,1.4939766E0,6.4655125E-1,1.1008686E0,5.4319644E-1,-7.858401E-2,-4.1751057E-1,-6.7741525E-1,-9.116497E-1,9.745848E-1,-1.0410627E-1,6.3214654E-1,1.6582042E-1,1.1231048E0,1.6142003E-2,3.2210103E-1,-2.7201775E-1,-3.746757E-1,-7.0451975E-1,3.3667654E-1,-7.5555736E-1,6.9129616E-1,1.4756317E-1,1.522592E0,1.176403E-1,7.189616E-1,8.887499E-3,9.478962E-1,1.163448E0,7.7371687E-1,1.1554834E-1,1.4278385E-1,-2.5141686E-1,-5.4963285E-1,1.5249045E-1,-5.499648E-1,-7.304004E-1,-6.9809926E-1,-9.1810584E-1,1.0214579E0,7.962195E-1,3.6867555E-2,-5.4440236E-1,2.3780005E-2,5.0348144E-2,1.6809708E-2,-1.9722866E-2,7.1318984E-2,4.951055E-2,5.847299E-2,-2.2804523E-3,3.4109093E-2,3.0246335E-3,-3.6875375E-3,-4.562288E-2,-9.043766E-4,-2.5347963E-2,-3.9419144E-2,-2.897277E-2,1.09820105E-2,5.480606E-2,-4.5031432E-2,9.634686E-3,2.7898362E-2,4.3344274E-2,7.4132375E-2,9.201951E-2,-4.196256E-3,3.4433328E-2,5.0549414E-2,3.0676195E-2,1.7077988E-2,-2.672853E-2,4.304142E-2,5.224035E-2,2.4865376E-2,5.860215E-2,4.4713568E-2,-7.5302585E-3,1.0111862E-2,-2.5092388E-2,1.3759348E-2,-1.872615E-2,-1.3967722E-2,8.310748E-2,-3.8674954E-4,-3.089257E-2,1.56022115E-2,-2.2918662E-2,-2.3638403E-2,-4.0007394E-2,-3.764675E-2,-2.0216625E-2,-2.9725274E-2,-4.9027514E-2,-4.5913417E-2,9.527591E-2,6.761621E-2,4.9381193E-2,6.2842846E-2,3.6522653E-2,5.590855E-4,1.1349531E-1,-3.3247378E-2,9.658984E-3],"categories":[],"categories_nodes":[],"categories_segments":[],"categories_sizes":[],"default_left":[0,0,0,0,0,0,0,0,0,0,0,0,0,0,0,0,0,0,0,0,0,0,0,0,0,0,0,0,0,0,0,0,0,0,0,0,0,0,0,0,0,0,0,0,0,0,0,0,0,0,0,0,0,0,0,0,0,0,0,0,0,0,0,0,0,0,0,0,0,0,0,0,0,0,0,0,0,0,0,0,0,0,0,0,0,0,0,0,0,0,0,0,0,0,0,0,0,0,0,0,0,0,0,0,0,0,0,0,0,0,0,0,0,0,0,0,0,0,0,0,0,0,0,0,0],"id":3,"left_children":[1,3,5,7,9,11,13,15,17,19,21,23,25,27,29,31,33,35,37,39,41,43,45,47,49,51,53,55,57,59,61,63,65,67,69,71,73,75,77,79,81,83,-1,85,87,89,91,93,95,97,99,101,103,105,107,109,111,113,115,117,119,121,123,-1,-1,-1,-1,-1,-1,-1,-1,-1,-1,-1,-1,-1,-1,-1,-1,-1,-1,-1,-1,-1,-1,-1,-1,-1,-1,-1,-1,-1,-1,-1,-1,-1,-1,-1,-1,-1,-1,-1,-1,-1,-1,-1,-1,-1,-1,-1,-1,-1,-1,-1,-1,-1,-1,-1,-1,-1,-1,-1,-1,-1,-1],"loss_changes":[2.0460336E5,2.292961E4,6.3632387E4,1.6579422E4,8.773133E3,3.8406367E4,1.1848664E4,9.527609E3,5.4645586E3,6.566736E2,2.4834531E3,2.2072852E2,1.6411936E4,1.2009531E3,1.8118389E3,9.469504E3,1.0678668E4,2.8791753E3,3.1700098E2,4.6538116E2,1.8253784E2,1.4850391E3,1.7594934E2,2.3130078E2,7.2380356E1,1.8867674E4,1.51485625E4,1.7497754E2,1.9214062E2,1.3713013E1,9.311892E2,9.179723E3,5.7602373E3,2.1474688E3,7.420375E2,4.108877E3,1.2739316E3,5.8057385E2,3.9614746E1,5.41692E2,5.751494E1,1.7176758E2,0E0,4.6623438E2,8.858725E1,1.0474951E2,7.062271E1,5.8617676E1,9.80332E1,5.334024E1,1.3944759E1,1.4809355E4,1.4805383E4,6.036703E3,3.689412E3,1.4698901E2,1.3446484E2,1.1960828E2,6.402344E1,1.4027466E1,1.017308E1,6.5181024E2,3.2362805E2,0E0,0E0,0E0,0E0,0E0,0E0,0E0,0E0,0E0,0E0,0E0,0E0,0E0,0E0,0E0,0E0,0E0,0E0,0E0,0E0,0E0,0E0,0E0,0E0,0E0,0E0,0E0,0E0,0E0,0E0,0E0,0E0,0E0,0E0,0E0,0E0,0E0,0E0,0E0,0E0,0E0,0E0,0E0,0E0,0E0,0E0,0E0,0E0,0E0,0E0,0E0,0E0,0E0,0E0,0E0,0E0,0E0,0E0,0E0,0E0,0E0,0E0],"parents":[2147483647,0,0,1,1,2,2,3,3,4,4,5,5,6,6,7,7,8,8,9,9,10,10,11,11,12,12,13,13,14,14,15,15,16,16,17,17,18,18,19,19,20,20,21,21,22,22,23,23,24,24,25,25,26,26,27,27,28,28,29,29,30,30,31,31,32,32,33,33,34,34,35,35,36,36,37,37,38,38,39,39,40,40,41,41,43,43,44,44,45,45,46,46,47,47,48,48,49,49,50,50,51,51,52,52,53,53,54,54,55,55,56,56,57,57,58,58,59,59,60,60,61,61,62,62],"right_children":[2,4,6,8,10,12,14,16,18,20,22,24,26,28,30,32,34,36,38,40,42,44,46,48,50,52,54,56,58,60,62,64,66,68,70,72,74,76,78,80,82,84,-1,86,88,90,92,94,96,98,100,102,104,106,108,110,112,114,116,118,120,122,124,-1,-1,-1,-1,-1,-1,-1,-1,-1,-1,-1,-1,-1,-1,-1,-1,-1,-1,-1,-1,-1,-1,-1,-1,-1,-1,-1,-1,-1,-1,-1,-1,-1,-1,-1,-1,-1,-1,-1,-1,-1,-1,-1,-1,-1,-1,-1,-1,-1,-1,-1,-1,-1,-1,-1,-1,-1,-1,-1,-1,-1,-1],"split_conditions":[9E0,3.4E1,1.41E2,8.97E2,7.3E1,1E0,1.53E2,3.64E2,1.8E1,1.1E1,1E0,4.9E1,5E0,1E0,1E0,1.71E2,2.1E1,1.25E2,1.09E2,5.8E1,8E0,9E0,2E0,1.44E2,1E1,1E0,3.1E1,1E1,5E0,1.64E2,1.7E1,2.2E1,2.7E1,3E0,4.92E2,3E0,2E0,3E0,2.33E2,2.5E1,1E0,1.6E1,1.4756317E-1,3.1E1,9.97E2,3.07E2,1.74E2,6E0,1E0,1.795E3,1.9E1,2E0,5E0,2.32E2,1E0,1.034E3,1.46E2,5E0,3E0,3E0,1.8E1,5E0,3.1E1,2.3780005E-2,5.0348144E-2,1.6809708E-2,-1.9722866E-2,7.1318984E-2,4.951055E-2,5.847299E-2,-2.2804523E-3,3.4109093E-2,3.0246335E-3,-3.6875375E-3,-4.562288E-2,-9.043766E-4,-2.5347963E-2,-3.9419144E-2,-2.897277E-2,1.09820105E-2,5.480606E-2,-4.5031432E-2,9.634686E-3,2.7898362E-2,4.3344274E-2,7.4132375E-2,9.201951E-2,-4.196256E-3,3.4433328E-2,5.0549414E-2,3.0676195E-2,1.7077988E-2,-2.672853E-2,4.304142E-2,5.224035E-2,2.4865376E-2,5.860215E-2,4.4713568E-2,-7.5302585E-3,1.0111862E-2,-2.5092388E-2,1.3759348E-2,-1.872615E-2,-1.3967722E-2,8.310748E-2,-3.8674954E-4,-3.089257E-2,1.56022115E-2,-2.2918662E-2,-2.3638403E-2,-4.0007394E-2,-3.764675E-2,-2.0216625E-2,-2.9725274E-2,-4.9027514E-2,-4.5913417E-2,9.527591E-2,6.761621E-2,4.9381193E-2,6.2842846E-2,3.6522653E-2,5.590855E-4,1.1349531E-1,-3.3247378E-2,9.658984E-3],"split_indices":[11,3,10,6,7,4,10,6,3,0,5,11,3,5,3,6,3,10,10,7,11,9,5,7,0,8,3,0,9,10,3,3,10,8,6,8,5,8,7,10,5,0,0,10,6,6,7,10,9,6,0,4,2,6,5,6,10,3,2,9,11,2,3,0,0,0,0,0,0,0,0,0,0,0,0,0,0,0,0,0,0,0,0,0,0,0,0,0,0,0,0,0,0,0,0,0,0,0,0,0,0,0,0,0,0,0,0,0,0,0,0,0,0,0,0,0,0,0,0,0,0,0,0,0,0],"split_type":[0,0,0,0,0,0,0,0,0,0,0,0,0,0,0,0,0,0,0,0,0,0,0,0,0,0,0,0,0,0,0,0,0,0,0,0,0,0,0,0,0,0,0,0,0,0,0,0,0,0,0,0,0,0,0,0,0,0,0,0,0,0,0,0,0,0,0,0,0,0,0,0,0,0,0,0,0,0,0,0,0,0,0,0,0,0,0,0,0,0,0,0,0,0,0,0,0,0,0,0,0,0,0,0,0,0,0,0,0,0,0,0,0,0,0,0,0,0,0,0,0,0,0,0,0],"sum_hessian":[1.3075764E6,4.0573044E5,9.0184594E5,3.503071E5,5.5423367E4,7.1930444E5,1.8254148E5,2.805301E5,6.977698E4,1.3903684E4,4.1519684E4,2.5010375E4,6.9429406E5,1.6580416E5,1.6737338E4,2.1679595E5,6.3734156E4,5.3650246E4,1.6126728E4,6.5120073E3,7.391677E3,3.770993E4,3.8097512E3,2.4276252E4,7.3412396E2,4.9314628E5,2.0114777E5,2.5969629E4,1.3983452E5,1.7364746E3,1.5000864E4,1.564543E5,6.0341652E4,5.3316754E4,1.0417405E4,4.361803E4,1.0032219E4,1.2307115E4,3.8196125E3,6.096173E3,4.1583444E2,7.356665E3,3.5011482E1,3.6941773E4,7.681582E2,3.4211345E3,3.8861664E2,7.052623E3,1.7223629E4,4.764747E2,2.5764926E2,2.162145E5,2.7693178E5,1.6329677E5,3.7851008E4,7.6293496E3,1.834028E4,4.1066797E3,1.3572784E5,1.3713634E3,3.651112E2,1.1363439E4,3.637425E3,1.1036241E5,4.609189E4,4.6271457E4,1.4070195E4,1.624182E4,3.7074934E4,5.285116E2,9.888894E3,1.8353898E4,2.526413E4,7.661493E3,2.3707253E3,3.3304836E3,8.976632E3,2.2832517E3,1.5363607E3,5.283269E3,8.129037E2,3.607016E2,5.5132866E1,4.183907E3,3.1727576E3,3.282201E4,4.1197627E3,5.6837994E2,1.9977829E2,9.052662E2,2.5158684E3,2.4128688E2,1.4732976E2,3.7201785E3,3.3324448E3,2.2014876E2,1.700348E4,4.2152936E2,5.494534E1,2.2651643E2,3.1132849E1,1.7215295E5,4.406155E4,2.729477E5,3.9841064E3,1.8258717E4,1.4503805E5,3.0012438E4,7.8385713E3,5.8325435E3,1.7968063E3,1.7153486E4,1.1867932E3,3.0069387E3,1.0997412E3,1.357207E5,7.13537E0,1.2360943E2,1.247754E3,4.3352604E1,3.217586E2,1.123521E4,1.2822958E2,3.1265435E3,5.108816E2],"tree_param":{"num_deleted":"0","num_feature":"12","num_nodes":"125","size_leaf_vector":"1"}},{"base_weights":[-1.7198354E-3,5.466368E-1,-2.563969E-1,4.6030813E-1,1.0796876E0,-1.2713985E-1,-7.792715E-1,5.5927306E-1,5.4384574E-2,4.6456748E-1,1.2794552E0,9.901639E-1,-1.6927011E-1,-8.614812E-1,7.2779567E-3,4.6815816E-1,8.64557E-1,1.9871575E-1,-4.3816954E-1,5.0229615E-1,-5.939712E-1,1.3462608E0,5.994224E-1,8.966266E-1,1.0663061E0,-7.512317E-2,-4.038568E-1,-6.6148514E-1,-8.9897627E-1,8.9162743E-1,-9.966046E-2,5.8610564E-1,1.5568097E-1,1.0241107E0,1.5261498E-2,3.0217776E-1,-2.6139054E-1,-3.6138153E-1,-6.887055E-1,4.1900057E-1,1.0108968E0,-8.7733644E-1,1.2153478E-1,1.3707331E0,1.11202285E-1,7.4504185E-1,3.3149117E-1,9.768722E-1,6.357132E-1,1.2824966E0,1.0311269E0,1.3513559E-1,-2.4175346E-1,-5.346826E-1,1.43932E-1,-5.15069E-1,-7.079019E-1,-6.8229264E-1,-9.055864E-1,1.133257E0,8.637104E-1,-2.8531942E-1,2.2200803E-1,2.1461207E-2,4.4479467E-2,1.5232176E-2,-2.0983053E-2,7.2284594E-2,4.717919E-2,-2.631419E-3,4.8430707E-2,3.1579785E-2,2.8666067E-3,-3.5133807E-3,-4.499025E-2,-8.597808E-4,-2.4576854E-2,-3.8666055E-2,-2.8178206E-2,1.3896187E-2,4.0876012E-2,4.710769E-2,1.6099875E-1,-5.1428206E-2,-1.0493776E-2,-1.3527365E-2,3.2585036E-2,6.932851E-2,3.7471727E-2,1.6394699E-2,-1.8441256E-2,3.936931E-2,-9.955354E-4,4.154716E-2,-1.4152901E-2,4.305316E-2,5.497212E-2,2.3999276E-2,4.3348245E-2,2.2041393E-2,6.4607814E-2,4.9815383E-2,5.8989342E-2,1.3014302E-2,-1.7785113E-2,-1.34397615E-2,7.4540526E-2,-4.0809446E-4,-3.011323E-2,1.4644523E-2,-2.217727E-2,-2.143981E-2,-3.9902326E-2,-3.665368E-2,-2.0409234E-2,-2.8925538E-2,-4.8487704E-2,-4.528761E-2,8.601729E-2,5.75199E-2,-3.3261806E-2,2.1283958E-2,4.4626407E-2,-7.1507134E-3,-2.872997E-2,1.566704E-2,-3.2100108E-2],"categories":[],"categories_nodes":[],"categories_segments":[],"categories_sizes":[],"default_left":[0,0,0,0,0,0,0,0,0,0,0,0,0,0,0,0,0,0,0,0,0,0,0,0,0,0,0,0,0,0,0,0,0,0,0,0,0,0,0,0,0,0,0,0,0,0,0,0,0,0,0,0,0,0,0,0,0,0,0,0,0,0,0,0,0,0,0,0,0,0,0,0,0,0,0,0,0,0,0,0,0,0,0,0,0,0,0,0,0,0,0,0,0,0,0,0,0,0,0,0,0,0,0,0,0,0,0,0,0,0,0,0,0,0,0,0,0,0,0,0,0,0,0,0,0,0,0],"id":4,"left_children":[1,3,5,7,9,11,13,15,17,19,21,23,25,27,29,31,33,35,37,39,41,43,45,47,49,51,53,55,57,59,61,63,65,67,69,71,73,75,77,79,81,83,85,87,89,91,93,95,97,99,101,103,105,107,109,111,113,115,117,119,121,123,125,-1,-1,-1,-1,-1,-1,-1,-1,-1,-1,-1,-1,-1,-1,-1,-1,-1,-1,-1,-1,-1,-1,-1,-1,-1,-1,-1,-1,-1,-1,-1,-1,-1,-1,-1,-1,-1,-1,-1,-1,-1,-1,-1,-1,-1,-1,-1,-1,-1,-1,-1,-1,-1,-1,-1,-1,-1,-1,-1,-1,-1,-1,-1,-1],"loss_changes":[1.8249255E5,1.9070445E4,6.030768E4,1.4328039E4,7.097242E3,3.3678457E4,1.1436398E4,7.9759453E3,4.97023E3,5.658782E2,1.98E3,1.8420508E2,1.5227166E4,1.2001875E3,1.5829652E3,8.13934E3,8.931512E3,2.5739822E3,3.045586E2,5.7890186E2,9.901625E1,1.1997812E3,1.5199255E2,2.4376855E2,1.07634766E2,1.723771E4,1.4150789E4,1.7147461E2,1.9251562E2,1.120166E1,8.9185614E2,7.632949E3,5.18683E3,1.8823438E3,6.747987E2,3.5604456E3,1.2111663E3,5.433489E2,3.891028E1,6.6050195E2,2.8909888E2,3.5069183E1,2.9126562E1,3.82E2,8.046959E1,8.187561E1,4.2250958E2,1.25743164E2,9.856067E1,1.5697998E1,6.2628906E1,1.3362441E4,1.2860255E4,5.6716445E3,3.33138E3,1.483335E2,1.4452051E2,1.1864868E2,5.8507812E1,6.4319E0,2.0105957E1,3.8969696E2,4.3147903E2,0E0,0E0,0E0,0E0,0E0,0E0,0E0,0E0,0E0,0E0,0E0,0E0,0E0,0E0,0E0,0E0,0E0,0E0,0E0,0E0,0E0,0E0,0E0,0E0,0E0,0E0,0E0,0E0,0E0,0E0,0E0,0E0,0E0,0E0,0E0,0E0,0E0,0E0,0E0,0E0,0E0,0E0,0E0,0E0,0E0,0E0,0E0,0E0,0E0,0E0,0E0,0E0,0E0,0E0,0E0,0E0,0E0,0E0,0E0,0E0,0E0,0E0,0E0,0E0],"parents":[2147483647,0,0,1,1,2,2,3,3,4,4,5,5,6,6,7,7,8,8,9,9,10,10,11,11,12,12,13,13,14,14,15,15,16,16,17,17,18,18,19,19,20,20,21,21,22,22,23,23,24,24,25,25,26,26,27,27,28,28,29,29,30,30,31,31,32,32,33,33,34,34,35,35,36,36,37,37,38,38,39,39,40,40,41,41,42,42,43,43,44,44,45,45,46,46,47,47,48,48,49,49,50,50,51,51,52,52,53,53,54,54,55,55,56,56,57,57,58,58,59,59,60,60,61,61,62,62],"right_children":[2,4,6,8,10,12,14,16,18,20,22,24,26,28,30,32,34,36,38,40,42,44,46,48,50,52,54,56,58,60,62,64,66,68,70,72,74,76,78,80,82,84,86,88,90,92,94,96,98,100,102,104,106,108,110,112,114,116,118,120,122,124,126,-1,-1,-1,-1,-1,-1,-1,-1,-1,-1,-1,-1,-1,-1,-1,-1,-1,-1,-1,-1,-1,-1,-1,-1,-1,-1,-1,-1,-1,-1,-1,-1,-1,-1,-1,-1,-1,-1,-1,-1,-1,-1,-1,-1,-1,-1,-1,-1,-1,-1,-1,-1,-1,-1,-1,-1,-1,-1,-1,-1,-1,-1,-1,-1],"split_conditions":[9E0,3.4E1,1.41E2,8.97E2,7.3E1,1E0,1.53E2,3.64E2,1.8E1,5.8E1,1E0,1E1,7E0,1E0,2E0,4.3E1,2.1E1,1.25E2,1.09E2,3E1,6.2E1,9E0,8.25E2,2.4E1,1.1E1,1E0,3.1E1,9E0,5E0,1.8E1,2.8E1,2.1E1,3.3E1,6.21E2,3E1,3E0,2E0,3E0,2.33E2,6E0,8E0,1E0,9E0,9E1,3E0,9E1,3E0,8.56E2,6.4E1,2E0,1.01E2,5E0,5E0,2.32E2,1E0,1.034E3,1.46E2,5E0,3E0,1E0,7.17E2,2.1E1,2E0,2.1461207E-2,4.4479467E-2,1.5232176E-2,-2.0983053E-2,7.2284594E-2,4.717919E-2,-2.631419E-3,4.8430707E-2,3.1579785E-2,2.8666067E-3,-3.5133807E-3,-4.499025E-2,-8.597808E-4,-2.4576854E-2,-3.8666055E-2,-2.8178206E-2,1.3896187E-2,4.0876012E-2,4.710769E-2,1.6099875E-1,-5.1428206E-2,-1.0493776E-2,-1.3527365E-2,3.2585036E-2,6.932851E-2,3.7471727E-2,1.6394699E-2,-1.8441256E-2,3.936931E-2,-9.955354E-4,4.154716E-2,-1.4152901E-2,4.305316E-2,5.497212E-2,2.3999276E-2,4.3348245E-2,2.2041393E-2,6.4607814E-2,4.9815383E-2,5.8989342E-2,1.3014302E-2,-1.7785113E-2,-1.34397615E-2,7.4540526E-2,-4.0809446E-4,-3.011323E-2,1.4644523E-2,-2.217727E-2,-2.143981E-2,-3.9902326E-2,-3.665368E-2,-2.0409234E-2,-2.8925538E-2,-4.8487704E-2,-4.528761E-2,8.601729E-2,5.75199E-2,-3.3261806E-2,2.1283958E-2,4.4626407E-2,-7.1507134E-3,-2.872997E-2,1.566704E-2,-3.2100108E-2],"split_indices":[11,3,10,6,7,4,10,6,3,7,5,9,3,5,3,7,3,10,10,10,7,9,6,11,9,8,3,0,9,11,9,3,10,6,3,8,5,8,7,6,11,5,0,10,8,10,8,6,10,0,10,1,2,6,5,6,10,3,2,5,6,3,5,0,0,0,0,0,0,0,0,0,0,0,0,0,0,0,0,0,0,0,0,0,0,0,0,0,0,0,0,0,0,0,0,0,0,0,0,0,0,0,0,0,0,0,0,0,0,0,0,0,0,0,0,0,0,0,0,0,0,0,0,0,0,0,0],"split_type":[0,0,0,0,0,0,0,0,0,0,0,0,0,0,0,0,0,0,0,0,0,0,0,0,0,0,0,0,0,0,0,0,0,0,0,0,0,0,0,0,0,0,0,0,0,0,0,0,0,0,0,0,0,0,0,0,0,0,0,0,0,0,0,0,0,0,0,0,0,0,0,0,0,0,0,0,0,0,0,0,0,0,0,0,0,0,0,0,0,0,0,0,0,0,0,0,0,0,0,0,0,0,0,0,0,0,0,0,0,0,0,0,0,0,0,0,0,0,0,0,0,0,0,0,0,0,0],"sum_hessian":[1.3067471E6,4.1442622E5,8.9232094E5,3.566654E5,5.7760816E4,7.1545775E5,1.7686323E5,2.867539E5,6.991149E4,1.4160724E4,4.3600094E4,2.5996715E4,6.89461E5,1.6012678E5,1.6736451E4,2.2084358E5,6.591033E4,5.406859E4,1.5842906E4,1.3673883E4,4.8684155E2,3.9699117E4,3.900975E3,1.1671531E4,1.4325184E4,4.920053E5,1.9745572E5,2.5283742E4,1.3484303E5,1.8047076E3,1.4931743E4,1.6032608E5,6.05175E4,5.5486164E4,1.0424163E4,4.414275E4,9.925839E3,1.2128136E4,3.7147703E3,1.175117E4,1.9227123E3,3.4856967E2,1.3827188E2,3.8927668E4,7.7144995E2,2.5262102E3,1.374765E3,8.924116E3,2.7474153E3,1.9998536E3,1.232533E4,2.175256E5,2.744797E5,1.5938952E5,3.80662E4,6.0889536E3,1.9194787E4,3.9948596E3,1.3084818E5,1.8281358E2,1.6218942E3,9.467471E3,5.4642725E3,1.0569235E5,5.463373E4,4.807167E4,1.2445828E4,8.896024E3,4.659014E4,9.73207E3,6.920926E2,1.8820232E4,2.5322518E4,7.6398096E3,2.2860293E3,3.3281748E3,8.799961E3,2.2131487E3,1.5016216E3,8.680096E3,3.0710747E3,1.8660697E3,5.6642673E1,2.8374103E2,6.482867E1,7.9768845E1,5.8503033E1,3.795886E4,9.688086E2,5.31734E2,2.3971593E2,2.3936775E3,1.3253258E2,7.582077E2,6.1655725E2,4.592741E3,4.331375E3,1.6436421E3,1.1037731E3,2.3220802E1,1.9766329E3,9.992573E3,2.3327568E3,1.7333127E5,4.419434E4,2.702623E5,4.217394E3,1.8131445E4,1.4125806E5,3.036697E4,7.699228E3,4.6682383E3,1.4207152E3,1.7706285E4,1.4885018E3,2.9373896E3,1.05747E3,1.3084058E5,7.602968E0,1.8144463E2,1.3689562E0,1.0109E2,1.5208041E3,6.3467944E3,3.1206765E3,4.942453E3,5.218193E2],"tree_param":{"num_deleted":"0","num_feature":"12","num_nodes":"127","size_leaf_vector":"1"}},{"base_weights":[-1.9742018E-3,5.088864E-1,-2.4638696E-1,4.2977434E-1,9.87637E-1,-1.2158606E-1,-7.6457536E-1,5.203439E-1,5.1394377E-2,4.3361118E-1,1.162938E0,9.077656E-1,-1.6204132E-1,-8.4803355E-1,6.729945E-3,4.3695337E-1,7.9608804E-1,1.872616E-1,-4.2377755E-1,2.2628811E-1,6.1277974E-1,1.2211226E0,5.567273E-1,8.2458067E-1,9.7510797E-1,-7.323934E-2,-3.945158E-1,-6.456535E-1,-8.863516E-1,8.217185E-1,-9.4969064E-2,5.447317E-1,1.4694649E-1,9.3784887E-1,1.4436545E-2,2.8374237E-1,-2.5109428E-1,-3.4840325E-1,-6.7297167E-1,2.856474E-1,-7.2494054E-1,5.211872E-1,7.810091E-1,1.2423353E0,1.0508516E-1,6.184631E-1,-7.6014623E-3,8.7023526E-1,4.576002E-1,1.1644276E0,9.4404906E-1,1.2657186E-1,-2.3342465E-1,-5.2892923E-1,1.3591138E-1,-5.1845425E-1,-6.992955E-1,-6.665734E-1,-8.931187E-1,8.6001736E-1,6.743824E-1,-2.7431294E-1,2.0964466E-1,2.4818826E-2,6.9485106E-2,1.4302134E-2,-2.02736E-2,5.9193254E-2,4.1406203E-2,5.3097636E-2,-2.2126234E-3,2.930119E-2,2.7171879E-3,-3.3470024E-3,-4.4360027E-2,-8.1736175E-4,-2.3817284E-2,-3.7915014E-2,-2.739205E-2,9.130099E-3,4.5670237E-2,-4.3772236E-2,9.641357E-3,2.2025557E-2,4.8852507E-2,1.9289685E-2,5.1491804E-2,6.040263E-2,7.5684324E-2,-4.177243E-3,3.1096613E-2,4.3087434E-2,2.6442641E-2,1.4121163E-2,-2.564847E-2,3.818849E-2,4.933474E-2,3.4204137E-2,8.118248E-3,5.961557E-2,4.53689E-2,4.5662653E-2,5.3736877E-2,1.2031657E-2,-1.7129669E-2,-1.3000672E-2,6.877458E-2,-3.5573586E-4,-2.9933428E-2,1.3756505E-2,-2.14492E-2,-2.2129085E-2,-3.8537428E-2,-3.6112394E-2,-1.8807186E-2,-2.8133765E-2,-4.7953214E-2,-4.466472E-2,7.388327E-2,5.6492962E-2,4.1601073E-2,2.118583E-2,3.8023975E-2,-6.8428363E-3,-2.7937422E-2,8.975895E-3,1.3460898E-1],"categories":[],"categories_nodes":[],"categories_segments":[],"categories_sizes":[],"default_left":[0,0,0,0,0,0,0,0,0,0,0,0,0,0,0,0,0,0,0,0,0,0,0,0,0,0,0,0,0,0,0,0,0,0,0,0,0,0,0,0,0,0,0,0,0,0,0,0,0,0,0,0,0,0,0,0,0,0,0,0,0,0,0,0,0,0,0,0,0,0,0,0,0,0,0,0,0,0,0,0,0,0,0,0,0,0,0,0,0,0,0,0,0,0,0,0,0,0,0,0,0,0,0,0,0,0,0,0,0,0,0,0,0,0,0,0,0,0,0,0,0,0,0,0,0,0,0],"id":5,"left_children":[1,3,5,7,9,11,13,15,17,19,21,23,25,27,29,31,33,35,37,39,41,43,45,47,49,51,53,55,57,59,61,63,65,67,69,71,73,75,77,79,81,83,85,87,89,91,93,95,97,99,101,103,105,107,109,111,113,115,117,119,121,123,125,-1,-1,-1,-1,-1,-1,-1,-1,-1,-1,-1,-1,-1,-1,-1,-1,-1,-1,-1,-1,-1,-1,-1,-1,-1,-1,-1,-1,-1,-1,-1,-1,-1,-1,-1,-1,-1,-1,-1,-1,-1,-1,-1,-1,-1,-1,-1,-1,-1,-1,-1,-1,-1,-1,-1,-1,-1,-1,-1,-1,-1,-1,-1,-1],"loss_changes":[1.6302536E5,1.6002539E4,5.711259E4,1.242632E4,5.818824E3,2.9638262E4,1.10340625E4,6.7272188E3,4.521359E3,5.348911E2,1.60475E3,1.4996875E2,1.4137342E4,1.1989062E3,1.3873363E3,7.021383E3,7.5275703E3,2.3033728E3,2.922556E2,3.773164E2,1.1863623E2,9.8302734E2,1.389397E2,2.0144775E2,8.632617E1,1.5860304E4,1.3495367E4,1.676748E2,1.928125E2,9.898682E0,8.1304047E2,6.690922E3,4.6770776E3,1.5513047E3,6.412666E2,3.095217E3,1.1508406E3,5.0801465E2,3.8185547E1,4.065334E2,5.439415E1,1.8365088E2,2.6723535E2,3.7728516E2,7.5678444E1,7.791077E1,5.7926888E1,1.3207861E2,8.91575E1,1.390625E1,5.0445312E1,1.1799425E4,1.17661875E4,5.4956133E3,3.009752E3,1.3956824E2,1.281875E2,1.1763306E2,5.3851562E1,1.0166748E1,8.046097E0,3.661551E2,4.1201013E2,0E0,0E0,0E0,0E0,0E0,0E0,0E0,0E0,0E0,0E0,0E0,0E0,0E0,0E0,0E0,0E0,0E0,0E0,0E0,0E0,0E0,0E0,0E0,0E0,0E0,0E0,0E0,0E0,0E0,0E0,0E0,0E0,0E0,0E0,0E0,0E0,0E0,0E0,0E0,0E0,0E0,0E0,0E0,0E0,0E0,0E0,0E0,0E0,0E0,0E0,0E0,0E0,0E0,0E0,0E0,0E0,0E0,0E0,0E0,0E0,0E0,0E0,0E0,0E0],"parents":[2147483647,0,0,1,1,2,2,3,3,4,4,5,5,6,6,7,7,8,8,9,9,10,10,11,11,12,12,13,13,14,14,15,15,16,16,17,17,18,18,19,19,20,20,21,21,22,22,23,23,24,24,25,25,26,26,27,27,28,28,29,29,30,30,31,31,32,32,33,33,34,34,35,35,36,36,37,37,38,38,39,39,40,40,41,41,42,42,43,43,44,44,45,45,46,46,47,47,48,48,49,49,50,50,51,51,52,52,53,53,54,54,55,55,56,56,57,57,58,58,59,59,60,60,61,61,62,62],"right_children":[2,4,6,8,10,12,14,16,18,20,22,24,26,28,30,32,34,36,38,40,42,44,46,48,50,52,54,56,58,60,62,64,66,68,70,72,74,76,78,80,82,84,86,88,90,92,94,96,98,100,102,104,106,108,110,112,114,116,118,120,122,124,126,-1,-1,-1,-1,-1,-1,-1,-1,-1,-1,-1,-1,-1,-1,-1,-1,-1,-1,-1,-1,-1,-1,-1,-1,-1,-1,-1,-1,-1,-1,-1,-1,-1,-1,-1,-1,-1,-1,-1,-1,-1,-1,-1,-1,-1,-1,-1,-1,-1,-1,-1,-1,-1,-1,-1,-1,-1,-1,-1,-1,-1,-1,-1,-1],"split_conditions":[9E0,3.4E1,1.41E2,8.97E2,7.3E1,1E0,1.53E2,3.64E2,1.8E1,1.1E1,1E0,1E1,2.1E1,1E0,1E0,4.3E1,2.1E1,1.25E2,1.09E2,5.8E1,1.7E1,9E0,2E0,3.9E1,1.1E1,1E0,3.1E1,1E1,5E0,1.64E2,2.8E1,2.7E1,3.3E1,3E0,4.92E2,3E0,2E0,3E0,2.33E2,1.1E1,1E0,3.6E1,1E0,3.1E1,9.97E2,3.07E2,1.74E2,1.73E2,2E0,6.3E1,1.01E2,2E0,5E0,2.32E2,1E0,1.034E3,1.46E2,5E0,1.7E1,3E0,8E0,2.1E1,3E0,2.4818826E-2,6.9485106E-2,1.4302134E-2,-2.02736E-2,5.9193254E-2,4.1406203E-2,5.3097636E-2,-2.2126234E-3,2.930119E-2,2.7171879E-3,-3.3470024E-3,-4.4360027E-2,-8.1736175E-4,-2.3817284E-2,-3.7915014E-2,-2.739205E-2,9.130099E-3,4.5670237E-2,-4.3772236E-2,9.641357E-3,2.2025557E-2,4.8852507E-2,1.9289685E-2,5.1491804E-2,6.040263E-2,7.5684324E-2,-4.177243E-3,3.1096613E-2,4.3087434E-2,2.6442641E-2,1.4121163E-2,-2.564847E-2,3.818849E-2,4.933474E-2,3.4204137E-2,8.118248E-3,5.961557E-2,4.53689E-2,4.5662653E-2,5.3736877E-2,1.2031657E-2,-1.7129669E-2,-1.3000672E-2,6.877458E-2,-3.5573586E-4,-2.9933428E-2,1.3756505E-2,-2.14492E-2,-2.2129085E-2,-3.8537428E-2,-3.6112394E-2,-1.8807186E-2,-2.8133765E-2,-4.7953214E-2,-4.466472E-2,7.388327E-2,5.6492962E-2,4.1601073E-2,2.118583E-2,3.8023975E-2,-6.8428363E-3,-2.7937422E-2,8.975895E-3,1.3460898E-1],"split_indices":[11,3,10,6,7,4,10,6,3,0,5,9,3,5,3,7,3,10,10,7,0,9,5,11,9,8,3,0,9,10,9,7,10,8,6,8,5,8,7,10,5,7,5,10,6,6,7,7,9,10,10,4,2,6,5,6,10,3,9,9,0,3,2,0,0,0,0,0,0,0,0,0,0,0,0,0,0,0,0,0,0,0,0,0,0,0,0,0,0,0,0,0,0,0,0,0,0,0,0,0,0,0,0,0,0,0,0,0,0,0,0,0,0,0,0,0,0,0,0,0,0,0,0,0,0,0,0],"split_type":[0,0,0,0,0,0,0,0,0,0,0,0,0,0,0,0,0,0,0,0,0,0,0,0,0,0,0,0,0,0,0,0,0,0,0,0,0,0,0,0,0,0,0,0,0,0,0,0,0,0,0,0,0,0,0,0,0,0,0,0,0,0,0,0,0,0,0,0,0,0,0,0,0,0,0,0,0,0,0,0,0,0,0,0,0,0,0,0,0,0,0,0,0,0,0,0,0,0,0,0,0,0,0,0,0,0,0,0,0,0,0,0,0,0,0,0,0,0,0,0,0,0,0,0,0,0,0],"sum_hessian":[1.3056544E6,4.2252028E5,8.8313406E5,3.6260312E5,5.9917156E4,7.117233E5,1.7141075E5,2.9257222E5,7.00309E4,1.4402522E4,4.5514633E4,2.6913348E4,6.8481E5,1.5467431E5,1.6736441E4,2.2463936E5,6.7932875E4,5.4459695E4,1.5571203E4,6.677724E3,7.7247983E3,4.1527754E4,3.986882E3,1.2046325E4,1.4867022E4,4.9552697E5,1.89283E5,2.4626295E4,1.30048016E5,1.8559861E3,1.4880455E4,1.6377356E5,6.0865797E4,5.7503754E4,1.0429118E4,4.4635836E4,9.823856E3,1.1956955E4,3.6142485E3,6.2861504E3,3.915735E2,5.0043022E3,2.7204958E3,4.075304E4,7.7471277E2,3.5936516E3,3.932303E2,1.071228E4,1.3340443E3,2.0901313E3,1.2776892E4,2.204915E5,2.7503547E5,1.5101492E5,3.8268082E4,7.307941E3,1.7318354E4,3.8876362E3,1.2616038E5,1.4692336E3,3.8675247E2,9.366153E3,5.514302E3,1.5491011E5,8.863463E3,4.8623203E4,1.2242594E4,1.773345E4,3.9770305E4,5.5240326E2,9.876715E3,1.9257902E4,2.5377936E4,7.619189E3,2.2046675E3,3.3259807E3,8.630974E3,2.1458796E3,1.4683688E3,5.400893E3,8.852576E2,3.36446E2,5.512748E1,4.253507E3,7.5079553E2,1.0520541E3,1.6684418E3,3.618665E4,4.566392E3,5.6818475E2,2.06528E2,9.650341E2,2.6286177E3,2.5012666E2,1.431036E2,5.600211E3,5.11207E3,7.541779E2,5.7986633E2,1.8823074E3,2.07824E2,1.0346727E4,2.4301646E3,1.773705E5,4.3121E4,2.7056497E5,4.470493E3,1.780354E4,1.3321138E5,3.070206E4,7.566023E3,5.6204536E3,1.6874875E3,1.6168713E4,1.1496399E3,2.870799E3,1.01683716E3,1.2615166E5,8.7223015E0,1.3440417E2,1.3348295E3,1.0039131E2,2.8636115E2,6.3155723E3,3.0505808E3,5.449245E3,6.50569E1],"tree_param":{"num_deleted":"0","num_feature":"12","num_nodes":"127","size_leaf_vector":"1"}},{"base_weights":[-2.1812168E-3,4.019266E-1,-2.8087732E-1,3.3524352E-1,8.217855E-1,-1.5031205E-1,-7.7719027E-1,3.9413658E-1,-7.9604E-2,9.524516E-1,3.6013627E-1,8.3208525E-1,-1.9604477E-1,-8.349681E-1,-2.3473326E-2,7.642119E-2,4.528997E-1,-2.0101514E-1,4.951967E-1,3.1074965E-1,1.0085517E0,4.7099295E-1,-6.6453075E-1,7.570138E-1,8.9338994E-1,-1.0556904E-2,-3.871562E-1,-6.300566E-1,-8.7408614E-1,7.509978E-1,-1.7379563E-1,5.154568E-1,-1.7568712E-1,5.0471395E-1,1.8000887E-1,-1.0769842E-1,-6.7765856E-1,5.744337E-1,-8.900282E-1,4.037718E-1,-7.4504817E-1,1.0987877E0,5.4712E-1,3.559764E-1,7.812437E-1,-4.818212E-1,-8.6534226E-1,8.2267153E-1,5.434103E-1,1.0627202E0,8.645231E-1,1.463432E-1,-2.8487977E-1,-4.1183564E-1,1.0307683E0,-4.513683E-1,-6.682123E-1,-6.588471E-1,-8.806887E-1,7.9160935E-1,5.787894E-1,-2.0539977E-1,1.874684E0,2.9703347E-2,-2.6117656E-3,3.7421923E-2,-1.229923E-2,2.6457513E-2,8.343768E-3,4.264092E-2,2.2729416E-3,5.602175E-2,-6.7001716E-3,-3.4752786E-2,9.481847E-3,4.4217024E-2,1.0223727E-2,-4.104043E-2,-5.176288E-2,4.417147E-3,4.0367465E-2,-5.0079744E-2,-4.882619E-3,5.639267E-2,-2.0714288E-3,2.1658434E-2,8.1805944E-2,1.3380529E-2,4.3402802E-2,5.101208E-2,2.8152555E-2,-2.46606E-2,2.4823865E-2,1.0659093E-1,-4.4459168E-2,3.6975604E-2,4.548108E-2,2.0626957E-2,3.6666688E-2,1.0299224E-2,5.3470522E-2,2.773926E-2,4.398092E-2,3.653919E-3,3.6623422E-2,-2.0269176E-2,1.0604445E-2,-2.2713013E-2,-4.8876456E-3,9.395638E-2,-2.9791722E-2,-1.6223034E-2,-3.9725807E-2,-2.2806425E-2,-3.4842074E-2,-2.7721563E-2,-4.8401926E-2,-2.6080295E-2,-4.4098306E-2,5.2092772E-2,3.828054E-2,1.7891863E-2,3.3135828E-2,-2.7166256E-3,-2.7703647E-2,-3.9807055E-2,1.182482E-1],"categories":[],"categories_nodes":[],"categories_segments":[],"categories_sizes":[],"default_left":[0,0,0,0,0,0,0,0,0,0,0,0,0,0,0,0,0,0,0,0,0,0,0,0,0,0,0,0,0,0,0,0,0,0,0,0,0,0,0,0,0,0,0,0,0,0,0,0,0,0,0,0,0,0,0,0,0,0,0,0,0,0,0,0,0,0,0,0,0,0,0,0,0,0,0,0,0,0,0,0,0,0,0,0,0,0,0,0,0,0,0,0,0,0,0,0,0,0,0,0,0,0,0,0,0,0,0,0,0,0,0,0,0,0,0,0,0,0,0,0,0,0,0,0,0,0,0],"id":6,"left_children":[1,3,5,7,9,11,13,15,17,19,21,23,25,27,29,31,33,35,37,39,41,43,45,47,49,51,53,55,57,59,61,63,65,67,69,71,73,75,77,79,81,83,85,87,89,91,93,95,97,99,101,103,105,107,109,111,113,115,117,119,121,123,125,-1,-1,-1,-1,-1,-1,-1,-1,-1,-1,-1,-1,-1,-1,-1,-1,-1,-1,-1,-1,-1,-1,-1,-1,-1,-1,-1,-1,-1,-1,-1,-1,-1,-1,-1,-1,-1,-1,-1,-1,-1,-1,-1,-1,-1,-1,-1,-1,-1,-1,-1,-1,-1,-1,-1,-1,-1,-1,-1,-1,-1,-1,-1,-1],"loss_changes":[1.4690142E5,1.4905406E4,5.002435E4,1.1224609E4,4.4011367E3,2.7459283E4,7.0018125E3,7.51116E3,3.985969E3,2.0469531E3,1.8289265E3,1.2444336E2,2.070209E4,1.1964922E3,1.3329952E3,6.9507393E3,4.800578E3,2.097334E3,1.0937756E3,4.4947455E2,2.1769258E3,5.181094E2,5.726068E1,1.710415E2,7.22041E1,1.2755791E4,1.0065965E4,1.6293652E2,1.77625E2,1.2557983E1,6.2115466E2,1.022272E3,2.5916677E3,2.3555312E3,4.9046587E3,1.2741693E3,1.1661963E2,1.0800889E3,4.571869E0,5.3507367E2,6.146663E1,1.449707E3,1.0610515E3,4.7942297E2,2.0426855E2,9.442429E0,5.5319458E1,6.694043E1,7.122699E1,1.2243652E1,5.92959E1,8.095906E3,6.457713E3,3.7671406E3,6.791956E3,1.8333844E2,1.1946094E2,1.2008008E2,5.5335938E1,8.982666E0,6.4177628E0,4.974043E2,1.9278107E2,0E0,0E0,0E0,0E0,0E0,0E0,0E0,0E0,0E0,0E0,0E0,0E0,0E0,0E0,0E0,0E0,0E0,0E0,0E0,0E0,0E0,0E0,0E0,0E0,0E0,0E0,0E0,0E0,0E0,0E0,0E0,0E0,0E0,0E0,0E0,0E0,0E0,0E0,0E0,0E0,0E0,0E0,0E0,0E0,0E0,0E0,0E0,0E0,0E0,0E0,0E0,0E0,0E0,0E0,0E0,0E0,0E0,0E0,0E0,0E0,0E0,0E0,0E0,0E0],"parents":[2147483647,0,0,1,1,2,2,3,3,4,4,5,5,6,6,7,7,8,8,9,9,10,10,11,11,12,12,13,13,14,14,15,15,16,16,17,17,18,18,19,19,20,20,21,21,22,22,23,23,24,24,25,25,26,26,27,27,28,28,29,29,30,30,31,31,32,32,33,33,34,34,35,35,36,36,37,37,38,38,39,39,40,40,41,41,42,42,43,43,44,44,45,45,46,46,47,47,48,48,49,49,50,50,51,51,52,52,53,53,54,54,55,55,56,56,57,57,58,58,59,59,60,60,61,61,62,62],"right_children":[2,4,6,8,10,12,14,16,18,20,22,24,26,28,30,32,34,36,38,40,42,44,46,48,50,52,54,56,58,60,62,64,66,68,70,72,74,76,78,80,82,84,86,88,90,92,94,96,98,100,102,104,106,108,110,112,114,116,118,120,122,124,126,-1,-1,-1,-1,-1,-1,-1,-1,-1,-1,-1,-1,-1,-1,-1,-1,-1,-1,-1,-1,-1,-1,-1,-1,-1,-1,-1,-1,-1,-1,-1,-1,-1,-1,-1,-1,-1,-1,-1,-1,-1,-1,-1,-1,-1,-1,-1,-1,-1,-1,-1,-1,-1,-1,-1,-1,-1,-1,-1,-1,-1,-1,-1,-1],"split_conditions":[1.3E1,3.1E1,1.41E2,1.09E2,1E0,1E0,1.53E2,3E0,1.3E1,7.3E1,8E0,1E1,5E0,1E0,1E0,3E0,1E0,2.3E1,3E0,5.8E1,7E0,1.6E1,2E0,2.4E1,1.1E1,1.7E1,5E0,8E0,5E0,1.64E2,5E0,2.2E1,2E0,1.262E3,6E0,1E0,3E1,1.71E2,1.59E2,3.6E1,6.2E1,9E0,3.4E1,2.5E1,1.9E1,1.6E1,3.4E1,6.89E2,6.4E1,1.6E1,6E0,1.3E2,3.4E1,3E1,3.3E1,1.034E3,1E0,5E0,2.97E2,3E0,8E0,2.1E1,1E0,2.9703347E-2,-2.6117656E-3,3.7421923E-2,-1.229923E-2,2.6457513E-2,8.343768E-3,4.264092E-2,2.2729416E-3,5.602175E-2,-6.7001716E-3,-3.4752786E-2,9.481847E-3,4.4217024E-2,1.0223727E-2,-4.104043E-2,-5.176288E-2,4.417147E-3,4.0367465E-2,-5.0079744E-2,-4.882619E-3,5.639267E-2,-2.0714288E-3,2.1658434E-2,8.1805944E-2,1.3380529E-2,4.3402802E-2,5.101208E-2,2.8152555E-2,-2.46606E-2,2.4823865E-2,1.0659093E-1,-4.4459168E-2,3.6975604E-2,4.548108E-2,2.0626957E-2,3.6666688E-2,1.0299224E-2,5.3470522E-2,2.773926E-2,4.398092E-2,3.653919E-3,3.6623422E-2,-2.0269176E-2,1.0604445E-2,-2.2713013E-2,-4.8876456E-3,9.395638E-2,-2.9791722E-2,-1.6223034E-2,-3.9725807E-2,-2.2806425E-2,-3.4842074E-2,-2.7721563E-2,-4.8401926E-2,-2.6080295E-2,-4.4098306E-2,5.2092772E-2,3.828054E-2,1.7891863E-2,3.3135828E-2,-2.7166256E-3,-2.7703647E-2,-3.9807055E-2,1.182482E-1],"split_indices":[11,3,10,10,5,4,10,9,9,7,11,9,9,5,3,8,5,3,5,7,11,0,5,11,9,3,2,0,9,10,2,3,11,6,6,4,3,6,10,7,7,9,9,10,6,9,3,6,10,11,10,10,3,9,11,6,8,3,6,9,0,3,5,0,0,0,0,0,0,0,0,0,0,0,0,0,0,0,0,0,0,0,0,0,0,0,0,0,0,0,0,0,0,0,0,0,0,0,0,0,0,0,0,0,0,0,0,0,0,0,0,0,0,0,0,0,0,0,0,0,0,0,0,0,0,0,0],"split_type":[0,0,0,0,0,0,0,0,0,0,0,0,0,0,0,0,0,0,0,0,0,0,0,0,0,0,0,0,0,0,0,0,0,0,0,0,0,0,0,0,0,0,0,0,0,0,0,0,0,0,0,0,0,0,0,0,0,0,0,0,0,0,0,0,0,0,0,0,0,0,0,0,0,0,0,0,0,0,0,0,0,0,0,0,0,0,0,0,0,0,0,0,0,0,0,0,0,0,0,0,0,0,0,0,0,0,0,0,0,0,0,0,0,0,0,0,0,0,0,0,0,0,0,0,0,0,0],"sum_hessian":[1.3043591E6,5.323925E5,7.719666E5,4.5942694E5,7.2965586E4,6.1118356E5,1.6078305E5,4.023133E5,5.7113613E4,5.6868387E4,1.6097197E4,2.7185572E4,5.83998E5,1.4933533E5,1.1447734E4,6.2795934E4,3.3951738E5,4.7154207E4,9.959404E3,4.572485E3,5.2295902E4,1.4526179E4,1.5710182E3,1.2226641E4,1.4958931E4,2.9635978E5,2.876382E5,2.3941277E4,1.2539405E5,1.860144E3,9.58759E3,2.2905668E4,3.9890266E4,2.8533872E5,5.4178652E4,3.943491E4,7.719298E3,9.421089E3,5.383153E2,4.2028096E3,3.6967526E2,4.374073E4,8.555172E3,1.0599038E4,3.9271414E3,8.243647E2,7.4665344E2,9.349827E3,2.8768142E3,2.1735093E3,1.2785422E4,1.8852984E5,1.0782995E5,2.827181E5,4.9200977E3,4.2149443E3,1.9726332E4,3.7350608E3,1.21658984E5,1.5022698E3,3.5787427E2,9.442805E3,1.4478479E2,2.0119598E4,2.786071E3,2.8192292E3,3.7071035E4,2.6609147E5,1.9247262E4,9.028223E3,4.515043E4,8.260603E2,3.860885E4,7.5676953E3,1.5160263E2,5.125869E3,4.29522E3,3.690633E2,1.6925204E2,2.3597168E3,1.8430928E3,2.6436636E2,1.05308876E2,4.265344E4,1.0872863E3,7.746035E3,8.091366E2,9.040507E3,1.5585311E3,1.8724602E3,2.0546812E3,8.153668E2,8.997864E0,5.194643E0,7.414588E2,4.7839385E3,4.565888E3,1.7050685E3,1.1717456E3,1.7087809E1,2.1564214E3,5.959023E2,1.218952E4,1.6758328E5,2.094655E4,8.678639E4,2.104356E4,2.4907406E5,3.364404E4,3.2335007E3,1.6865968E3,3.0783958E3,1.136549E3,2.3481614E3,1.7378172E4,2.7942268E3,9.4083405E2,4.326998E2,1.2122628E5,1.377079E2,1.3645619E3,9.996451E1,2.5790976E2,6.5891323E3,2.8536729E3,2.2359026E1,1.22425766E2],"tree_param":{"num_deleted":"0","num_feature":"12","num_nodes":"127","size_leaf_vector":"1"}},{"base_weights":[-2.349402E-3,3.7622666E-1,-2.701931E-1,3.1447235E-1,7.593563E-1,-1.4385268E-1,-7.629234E-1,3.689602E-1,-7.6026194E-2,8.76619E-1,3.3752802E-1,7.6800424E-1,-1.8785353E-1,-8.2182777E-1,-2.5889115E-2,7.227685E-2,4.2306778E-1,-1.9256842E-1,4.6120992E-1,2.9168665E-1,9.266708E-1,4.39705E-1,-6.4869386E-1,7.003324E-1,8.2304066E-1,-1.0124135E-2,-3.7369144E-1,-6.1420196E-1,-8.6174583E-1,6.949069E-1,-1.689946E-1,4.805237E-1,-1.6817059E-1,4.7059166E-1,1.6980597E-1,-1.0278609E-1,-6.613773E-1,5.3352803E-1,-8.759421E-1,3.7780115E-1,-7.303212E-1,1.0071918E0,5.0892293E-1,3.3369556E-1,7.2152585E-1,-4.668224E-1,-8.5167795E-1,7.594224E-1,5.063384E-1,9.741035E-1,7.9713875E-1,1.3819757E-1,-2.7387416E-1,-3.9780226E-1,9.4677573E-1,-4.6820864E-1,-6.6115975E-1,-6.458759E-1,-8.684123E-1,7.3150516E-1,5.386625E-1,-1.0095153E-2,-5.4448175E-1,2.7613698E-2,-2.4862634E-3,3.46034E-2,-1.18001625E-2,2.0350924E-2,2.994839E-2,1.3895813E-1,6.9852094E-3,-2.7725967E-3,-3.758491E-2,-3.394108E-2,8.942035E-3,4.0589817E-2,9.635468E-3,-4.02772E-2,-5.124427E-2,4.1825585E-3,3.723181E-2,-4.961554E-2,-4.6588047E-3,5.1644742E-2,-1.9711717E-3,2.0238725E-2,7.306935E-2,1.2584187E-2,3.9958876E-2,4.672487E-2,2.6202131E-2,-2.3904605E-2,2.328043E-2,9.499615E-2,-4.3800496E-2,3.4215756E-2,4.187883E-2,1.9303173E-2,3.3955395E-2,1.416159E-2,4.9092975E-2,2.4136845E-2,4.046053E-2,3.4613356E-3,3.3828586E-2,4.9387454E-3,-2.1275355E-2,-1.6915193E-2,-3.0960709E-2,8.410036E-2,-2.8907588E-2,-1.9219965E-2,-3.772107E-2,-3.4367915E-2,-1.7261121E-2,-2.7100233E-2,-4.7940876E-2,-4.3675996E-2,-3.871132E-2,4.7809564E-2,3.5399236E-2,1.6788429E-2,3.074578E-2,-2.5521296E-3,8.607396E-2,-3.3315282E-2,1.900934E-2],"categories":[],"categories_nodes":[],"categories_segments":[],"categories_sizes":[],"default_left":[0,0,0,0,0,0,0,0,0,0,0,0,0,0,0,0,0,0,0,0,0,0,0,0,0,0,0,0,0,0,0,0,0,0,0,0,0,0,0,0,0,0,0,0,0,0,0,0,0,0,0,0,0,0,0,0,0,0,0,0,0,0,0,0,0,0,0,0,0,0,0,0,0,0,0,0,0,0,0,0,0,0,0,0,0,0,0,0,0,0,0,0,0,0,0,0,0,0,0,0,0,0,0,0,0,0,0,0,0,0,0,0,0,0,0,0,0,0,0,0,0,0,0,0,0,0,0],"id":7,"left_children":[1,3,5,7,9,11,13,15,17,19,21,23,25,27,29,31,33,35,37,39,41,43,45,47,49,51,53,55,57,59,61,63,65,67,69,71,73,75,77,79,81,83,85,87,89,91,93,95,97,99,101,103,105,107,109,111,113,115,117,119,121,123,125,-1,-1,-1,-1,-1,-1,-1,-1,-1,-1,-1,-1,-1,-1,-1,-1,-1,-1,-1,-1,-1,-1,-1,-1,-1,-1,-1,-1,-1,-1,-1,-1,-1,-1,-1,-1,-1,-1,-1,-1,-1,-1,-1,-1,-1,-1,-1,-1,-1,-1,-1,-1,-1,-1,-1,-1,-1,-1,-1,-1,-1,-1,-1,-1],"loss_changes":[1.3213225E5,1.27745625E4,4.7507637E4,9.893777E3,3.7069688E3,2.4370979E4,6.7615703E3,6.55034E3,3.565006E3,1.7166602E3,1.643243E3,1.035625E2,1.91386E4,1.1947656E3,1.1891378E3,6.178474E3,4.153664E3,1.9693092E3,9.819763E2,4.072355E2,1.8166289E3,4.4114746E2,5.612274E1,1.4345068E2,5.9538086E1,1.1586874E4,9.018797E3,1.5914746E2,1.7351562E2,1.052594E1,5.7387646E2,8.876338E2,2.3115957E3,2.371289E3,4.2826494E3,1.2061531E3,1.1034473E2,9.131284E2,4.638977E0,4.601878E2,5.994792E1,1.2184023E3,8.6559814E2,4.0970898E2,1.6932104E2,8.731247E0,5.00235E1,5.587256E1,6.0677185E1,1.17873535E1,4.9572266E1,7.0394014E3,6.024175E3,3.664504E3,5.696258E3,1.3557556E2,1.4541162E2,1.1739429E2,5.5773438E1,7.4850464E0,5.459358E0,4.7935535E2,3.224251E2,0E0,0E0,0E0,0E0,0E0,0E0,0E0,0E0,0E0,0E0,0E0,0E0,0E0,0E0,0E0,0E0,0E0,0E0,0E0,0E0,0E0,0E0,0E0,0E0,0E0,0E0,0E0,0E0,0E0,0E0,0E0,0E0,0E0,0E0,0E0,0E0,0E0,0E0,0E0,0E0,0E0,0E0,0E0,0E0,0E0,0E0,0E0,0E0,0E0,0E0,0E0,0E0,0E0,0E0,0E0,0E0,0E0,0E0,0E0,0E0,0E0,0E0,0E0,0E0],"parents":[2147483647,0,0,1,1,2,2,3,3,4,4,5,5,6,6,7,7,8,8,9,9,10,10,11,11,12,12,13,13,14,14,15,15,16,16,17,17,18,18,19,19,20,20,21,21,22,22,23,23,24,24,25,25,26,26,27,27,28,28,29,29,30,30,31,31,32,32,33,33,34,34,35,35,36,36,37,37,38,38,39,39,40,40,41,41,42,42,43,43,44,44,45,45,46,46,47,47,48,48,49,49,50,50,51,51,52,52,53,53,54,54,55,55,56,56,57,57,58,58,59,59,60,60,61,61,62,62],"right_children":[2,4,6,8,10,12,14,16,18,20,22,24,26,28,30,32,34,36,38,40,42,44,46,48,50,52,54,56,58,60,62,64,66,68,70,72,74,76,78,80,82,84,86,88,90,92,94,96,98,100,102,104,106,108,110,112,114,116,118,120,122,124,126,-1,-1,-1,-1,-1,-1,-1,-1,-1,-1,-1,-1,-1,-1,-1,-1,-1,-1,-1,-1,-1,-1,-1,-1,-1,-1,-1,-1,-1,-1,-1,-1,-1,-1,-1,-1,-1,-1,-1,-1,-1,-1,-1,-1,-1,-1,-1,-1,-1,-1,-1,-1,-1,-1,-1,-1,-1,-1,-1,-1,-1,-1,-1,-1],"split_conditions":[1.3E1,3.1E1,1.41E2,1.09E2,1E0,1E0,1.52E2,3E0,1.3E1,7.3E1,8E0,1E1,5E0,1E0,1E0,3E0,1E0,2.3E1,3E0,5.8E1,7E0,1.6E1,2E0,2.4E1,1.1E1,1.7E1,5E0,9E0,5E0,1.64E2,2.1E1,2.2E1,2E0,8.9E1,2E0,2E0,3E1,1.71E2,1.59E2,3.6E1,6.2E1,9E0,3.4E1,2.5E1,1.9E1,1.6E1,3.4E1,6.89E2,6.4E1,2E0,5E0,1.3E2,2.4E1,7E0,3.3E1,1.034E3,1.46E2,5E0,2.4E1,3E0,8E0,5E0,3.4E1,2.7613698E-2,-2.4862634E-3,3.46034E-2,-1.18001625E-2,2.0350924E-2,2.994839E-2,1.3895813E-1,6.9852094E-3,-2.7725967E-3,-3.758491E-2,-3.394108E-2,8.942035E-3,4.0589817E-2,9.635468E-3,-4.02772E-2,-5.124427E-2,4.1825585E-3,3.723181E-2,-4.961554E-2,-4.6588047E-3,5.1644742E-2,-1.9711717E-3,2.0238725E-2,7.306935E-2,1.2584187E-2,3.9958876E-2,4.672487E-2,2.6202131E-2,-2.3904605E-2,2.328043E-2,9.499615E-2,-4.3800496E-2,3.4215756E-2,4.187883E-2,1.9303173E-2,3.3955395E-2,1.416159E-2,4.9092975E-2,2.4136845E-2,4.046053E-2,3.4613356E-3,3.3828586E-2,4.9387454E-3,-2.1275355E-2,-1.6915193E-2,-3.0960709E-2,8.410036E-2,-2.8907588E-2,-1.9219965E-2,-3.772107E-2,-3.4367915E-2,-1.7261121E-2,-2.7100233E-2,-4.7940876E-2,-4.3675996E-2,-3.871132E-2,4.7809564E-2,3.5399236E-2,1.6788429E-2,3.074578E-2,-2.5521296E-3,8.607396E-2,-3.3315282E-2,1.900934E-2],"split_indices":[11,3,10,10,5,4,10,9,9,7,11,9,9,5,3,8,5,3,5,7,11,0,5,11,9,3,2,0,9,10,3,3,11,7,11,5,3,6,10,7,7,9,9,10,6,9,3,6,10,0,10,10,11,3,11,6,10,3,3,9,0,2,3,0,0,0,0,0,0,0,0,0,0,0,0,0,0,0,0,0,0,0,0,0,0,0,0,0,0,0,0,0,0,0,0,0,0,0,0,0,0,0,0,0,0,0,0,0,0,0,0,0,0,0,0,0,0,0,0,0,0,0,0,0,0,0,0],"split_type":[0,0,0,0,0,0,0,0,0,0,0,0,0,0,0,0,0,0,0,0,0,0,0,0,0,0,0,0,0,0,0,0,0,0,0,0,0,0,0,0,0,0,0,0,0,0,0,0,0,0,0,0,0,0,0,0,0,0,0,0,0,0,0,0,0,0,0,0,0,0,0,0,0,0,0,0,0,0,0,0,0,0,0,0,0,0,0,0,0,0,0,0,0,0,0,0,0,0,0,0,0,0,0,0,0,0,0,0,0,0,0,0,0,0,0,0,0,0,0,0,0,0,0,0,0,0,0],"sum_hessian":[1.3030874E6,5.399334E5,7.6315394E5,4.6498684E5,7.494657E4,6.074099E5,1.55744E5,4.0805E5,5.6936836E4,5.8643406E4,1.6303168E4,2.7960049E4,5.794499E5,1.4421789E5,1.1526114E4,6.2939844E4,3.4511016E5,4.678783E4,1.0149006E4,4.6230303E3,5.4020375E4,1.4773157E4,1.5300107E3,1.2546634E4,1.5413416E4,2.961871E5,2.8326275E5,2.3258729E4,1.20959164E5,1.9086649E3,9.61745E3,2.3329146E4,3.96107E4,2.9058234E5,5.452782E4,3.926865E4,7.5191816E3,9.628844E3,5.2016254E2,4.264346E3,3.58684E2,4.5289418E4,8.73096E3,1.0736652E4,4.036505E3,8.0871277E2,7.212979E2,9.615013E3,2.9316206E3,2.250668E3,1.3162748E4,1.8957738E5,1.0660972E5,2.78184E5,5.078749E3,5.6630596E3,1.759567E4,3.6264932E3,1.1733267E5,1.5434498E3,3.6521503E2,6.75843E3,2.8590198E3,2.054859E4,2.7805566E3,2.8944705E3,3.6716227E4,1.9434486E5,9.623747E4,6.20823E2,5.3906996E4,3.659999E4,2.668659E3,7.3664346E3,1.5274683E2,5.300094E3,4.3287495E3,3.5756686E2,1.6259567E2,2.3673184E3,1.8970277E3,2.5377577E2,1.0490821E2,4.420386E4,1.085557E3,7.871649E3,8.593109E2,9.129666E3,1.6069868E3,1.9402987E3,2.096206E3,7.9953656E2,9.176232E0,5.646736E0,7.156512E2,4.9080547E3,4.706958E3,1.7302954E3,1.2013253E3,2.540291E1,2.2252651E3,4.8822925E2,1.2674519E4,1.6804973E5,2.1527646E4,3.083379E4,7.577593E4,2.1926502E5,5.8918984E4,3.4265588E3,1.6521904E3,4.3821987E3,1.2808606E3,1.6247222E4,1.3484471E3,2.7248096E3,9.016837E2,1.1128934E5,6.043331E3,1.4250201E2,1.4009479E3,1.0123981E2,2.6397522E2,6.60325E3,1.5517996E2,2.5264436E3,3.3257617E2],"tree_param":{"num_deleted":"0","num_feature":"12","num_nodes":"127","size_leaf_vector":"1"}},{"base_weights":[-2.4830978E-3,3.525657E-1,-2.598288E-1,4.0340686E-1,-4.6273343E-2,-1.3763942E-1,-7.486779E-1,3.4575143E-1,7.358678E-1,-1.4540078E-1,4.2572987E-1,7.1075714E-1,-1.7995407E-1,-8.0840904E-1,-2.4826236E-2,6.838325E-2,3.9567757E-1,8.4082305E-1,3.5365707E-1,-8.933736E-2,-6.736489E-1,4.9358505E-1,-8.656462E-1,6.4942807E-1,7.6045907E-1,-9.704127E-3,-3.6054528E-1,-5.986757E-1,-8.491644E-1,6.4450425E-1,-1.6183388E-1,4.4861433E-1,-1.609307E-1,4.393859E-1,1.602385E-1,9.0284E-2,8.725977E-1,4.13898E-1,-5.271926E-1,1.026941E0,-1.10471666E-1,3.9623857E-1,-7.231697E-1,7.3815656E-1,1.7810738E-1,-8.087449E-1,-9.9271953E-1,6.834855E-1,3.70626E-1,8.962079E-1,7.37069E-1,1.3055499E-1,-2.6317343E-1,-3.8407367E-1,8.736683E-1,-4.2036334E-1,-6.3724005E-1,-6.3043815E-1,-8.559844E-1,6.7765284E-1,5.0214386E-1,-9.635983E-3,-5.291892E-1,2.571542E-2,-2.3665715E-3,3.207278E-2,-1.1317142E-2,2.3091735E-2,6.3269655E-3,3.8749143E-2,1.6993647E-3,2.7982837E-3,6.9369994E-2,4.6792854E-2,2.0894084E-2,1.7175559E-2,4.3712437E-2,7.804853E-2,-2.7244916E-2,3.932394E-2,7.573202E-2,-7.920094E-3,1.8587148E-2,9.0820745E-2,5.350846E-3,-3.927167E-2,-1.8542385E-2,3.3872154E-2,8.697874E-2,1.1494285E-2,-2.2412546E-2,-3.0026535E-2,-4.138648E-2,-5.0736904E-2,-7.405446E-3,3.0569872E-2,3.8069293E-2,2.8427107E-2,5.3718374E-3,4.592787E-2,3.4425374E-2,2.4013443E-2,3.746773E-2,3.2794003E-3,3.1322666E-2,-1.9065028E-2,1.0486672E-2,-2.1319231E-2,-3.7742243E-3,7.593447E-2,-2.8038198E-2,-1.4869518E-2,-3.8344014E-2,-2.0961456E-2,-3.3336103E-2,-2.633038E-2,-4.744615E-2,-2.4184216E-2,-4.2866718E-2,4.40347E-2,3.2813076E-2,1.5766611E-2,2.8584281E-2,-2.4294301E-3,7.796686E-2,-3.2537732E-2,1.7789524E-2],"categories":[],"categories_nodes":[],"categories_segments":[],"categories_sizes":[],"default_left":[0,0,0,0,0,0,0,0,0,0,0,0,0,0,0,0,0,0,0,0,0,0,0,0,0,0,0,0,0,0,0,0,0,0,0,0,0,0,0,0,0,0,0,0,0,0,0,0,0,0,0,0,0,0,0,0,0,0,0,0,0,0,0,0,0,0,0,0,0,0,0,0,0,0,0,0,0,0,0,0,0,0,0,0,0,0,0,0,0,0,0,0,0,0,0,0,0,0,0,0,0,0,0,0,0,0,0,0,0,0,0,0,0,0,0,0,0,0,0,0,0,0,0,0,0,0,0],"id":8,"left_children":[1,3,5,7,9,11,13,15,17,19,21,23,25,27,29,31,33,35,37,39,41,43,45,47,49,51,53,55,57,59,61,63,65,67,69,71,73,75,77,79,81,83,85,87,89,91,93,95,97,99,101,103,105,107,109,111,113,115,117,119,121,123,125,-1,-1,-1,-1,-1,-1,-1,-1,-1,-1,-1,-1,-1,-1,-1,-1,-1,-1,-1,-1,-1,-1,-1,-1,-1,-1,-1,-1,-1,-1,-1,-1,-1,-1,-1,-1,-1,-1,-1,-1,-1,-1,-1,-1,-1,-1,-1,-1,-1,-1,-1,-1,-1,-1,-1,-1,-1,-1,-1,-1,-1,-1,-1,-1],"loss_changes":[1.1893417E5,1.1091766E4,4.507812E4,9.299305E3,2.893698E3,2.1674934E4,6.524867E3,5.7254844E3,2.8759688E3,1.5136354E3,9.410365E2,8.693652E1,1.7681197E4,1.1911328E3,1.0551292E3,5.49935E3,3.6056406E3,1.3414375E3,8.199857E2,1.0902626E3,2.6010425E2,7.867964E2,3.074463E0,1.2172754E2,4.9625977E1,1.0523824E4,8.1040977E3,1.55729E2,1.7357812E2,8.885559E0,5.339836E2,7.730918E2,2.065142E3,2.075414E3,4.258122E3,1.0167813E2,1.5519883E3,4.6825952E2,3.742929E1,9.9512024E1,1.0482439E3,8.917857E1,1.0253369E2,3.4810596E2,1.445936E2,9.883423E-1,2.8523254E0,6.3816406E1,7.289688E1,1.0151489E1,4.2279297E1,6.1394326E3,5.890911E3,3.5754766E3,4.831264E3,1.717893E2,1.19589355E2,1.1633923E2,5.6476562E1,6.297058E0,4.6668396E0,4.1284857E2,3.0122437E2,0E0,0E0,0E0,0E0,0E0,0E0,0E0,0E0,0E0,0E0,0E0,0E0,0E0,0E0,0E0,0E0,0E0,0E0,0E0,0E0,0E0,0E0,0E0,0E0,0E0,0E0,0E0,0E0,0E0,0E0,0E0,0E0,0E0,0E0,0E0,0E0,0E0,0E0,0E0,0E0,0E0,0E0,0E0,0E0,0E0,0E0,0E0,0E0,0E0,0E0,0E0,0E0,0E0,0E0,0E0,0E0,0E0,0E0,0E0,0E0,0E0,0E0,0E0,0E0],"parents":[2147483647,0,0,1,1,2,2,3,3,4,4,5,5,6,6,7,7,8,8,9,9,10,10,11,11,12,12,13,13,14,14,15,15,16,16,17,17,18,18,19,19,20,20,21,21,22,22,23,23,24,24,25,25,26,26,27,27,28,28,29,29,30,30,31,31,32,32,33,33,34,34,35,35,36,36,37,37,38,38,39,39,40,40,41,41,42,42,43,43,44,44,45,45,46,46,47,47,48,48,49,49,50,50,51,51,52,52,53,53,54,54,55,55,56,56,57,57,58,58,59,59,60,60,61,61,62,62],"right_children":[2,4,6,8,10,12,14,16,18,20,22,24,26,28,30,32,34,36,38,40,42,44,46,48,50,52,54,56,58,60,62,64,66,68,70,72,74,76,78,80,82,84,86,88,90,92,94,96,98,100,102,104,106,108,110,112,114,116,118,120,122,124,126,-1,-1,-1,-1,-1,-1,-1,-1,-1,-1,-1,-1,-1,-1,-1,-1,-1,-1,-1,-1,-1,-1,-1,-1,-1,-1,-1,-1,-1,-1,-1,-1,-1,-1,-1,-1,-1,-1,-1,-1,-1,-1,-1,-1,-1,-1,-1,-1,-1,-1,-1,-1,-1,-1,-1,-1,-1,-1,-1,-1,-1,-1,-1,-1],"split_conditions":[1.3E1,1.09E2,1.41E2,3.1E1,1.3E1,1E0,1.52E2,3E0,1E0,2E0,3E0,1E1,5E0,1E0,1E0,3E0,1E0,3.6E1,8E0,1E0,7.5E1,1.71E2,1.59E2,3.9E1,1.1E1,1.7E1,5E0,8E0,5E0,1.64E2,2.1E1,2.2E1,2E0,1.262E3,6E0,5.3E1,9E0,3E1,3.4E1,1.74E2,3.1E1,3E0,2.18E2,1.04E2,2.9E1,2.1E1,3E1,1.73E2,2E0,6.3E1,6E0,1.3E2,3.4E1,3E1,3.3E1,1.034E3,1E0,5E0,2.97E2,3E0,8E0,5E0,3.4E1,2.571542E-2,-2.3665715E-3,3.207278E-2,-1.1317142E-2,2.3091735E-2,6.3269655E-3,3.8749143E-2,1.6993647E-3,2.7982837E-3,6.9369994E-2,4.6792854E-2,2.0894084E-2,1.7175559E-2,4.3712437E-2,7.804853E-2,-2.7244916E-2,3.932394E-2,7.573202E-2,-7.920094E-3,1.8587148E-2,9.0820745E-2,5.350846E-3,-3.927167E-2,-1.8542385E-2,3.3872154E-2,8.697874E-2,1.1494285E-2,-2.2412546E-2,-3.0026535E-2,-4.138648E-2,-5.0736904E-2,-7.405446E-3,3.0569872E-2,3.8069293E-2,2.8427107E-2,5.3718374E-3,4.592787E-2,3.4425374E-2,2.4013443E-2,3.746773E-2,3.2794003E-3,3.1322666E-2,-1.9065028E-2,1.0486672E-2,-2.1319231E-2,-3.7742243E-3,7.593447E-2,-2.8038198E-2,-1.4869518E-2,-3.8344014E-2,-2.0961456E-2,-3.3336103E-2,-2.633038E-2,-4.744615E-2,-2.4184216E-2,-4.2866718E-2,4.40347E-2,3.2813076E-2,1.5766611E-2,2.8584281E-2,-2.4294301E-3,7.796686E-2,-3.2537732E-2,1.7789524E-2],"split_indices":[11,10,10,3,9,4,10,9,5,5,5,9,9,5,3,8,5,7,11,4,7,6,10,11,9,3,2,0,9,10,3,3,11,6,6,9,11,10,3,7,3,9,7,6,3,3,3,7,9,10,10,10,3,9,11,6,8,3,6,9,0,2,3,0,0,0,0,0,0,0,0,0,0,0,0,0,0,0,0,0,0,0,0,0,0,0,0,0,0,0,0,0,0,0,0,0,0,0,0,0,0,0,0,0,0,0,0,0,0,0,0,0,0,0,0,0,0,0,0,0,0,0,0,0,0,0,0],"split_type":[0,0,0,0,0,0,0,0,0,0,0,0,0,0,0,0,0,0,0,0,0,0,0,0,0,0,0,0,0,0,0,0,0,0,0,0,0,0,0,0,0,0,0,0,0,0,0,0,0,0,0,0,0,0,0,0,0,0,0,0,0,0,0,0,0,0,0,0,0,0,0,0,0,0,0,0,0,0,0,0,0,0,0,0,0,0,0,0,0,0,0,0,0,0,0,0,0,0,0,0,0,0,0,0,0,0,0,0,0,0,0,0,0,0,0,0,0,0,0,0,0,0,0,0,0,0,0],"sum_hessian":[1.3016702E6,5.4699894E5,7.5467125E5,4.8515484E5,6.1844074E4,6.037607E5,1.5091061E5,4.134554E5,7.1699445E4,5.1110773E4,1.0733301E4,2.8681855E4,5.750788E5,1.3940686E5,1.1503752E4,6.3069688E4,3.5038572E5,5.6251547E4,1.5447897E4,4.6207863E4,4.90291E3,1.0198063E4,5.3523785E2,1.2845445E4,1.583641E4,2.9601538E5,2.7906344E5,2.2684527E4,1.1672233E5,1.9540122E3,9.54974E3,2.3726777E4,3.934291E4,2.955223E5,5.4863406E4,2.284884E3,5.396666E4,1.4459546E4,9.883517E2,8.577061E2,4.5350156E4,2.1658708E2,4.686323E3,5.74385E3,4.454213E3,3.7478162E2,1.6045624E2,1.1445815E4,1.3996302E3,2.322128E3,1.3514282E4,1.905652E5,1.0545018E5,2.7384372E5,5.219719E3,4.0358113E3,1.8648717E4,3.5322417E3,1.13190086E5,1.5819058E3,3.7210654E2,6.7529653E3,2.796775E3,2.0951465E4,2.775314E3,2.9648916E3,3.637802E4,2.7573597E5,1.9786344E4,9.346779E3,4.5516625E4,2.2270063E3,5.7877686E1,4.7374887E4,6.591776E3,1.2543424E4,1.9161213E3,7.577016E0,9.8077466E2,5.762142E2,2.814919E2,4.1250676E4,4.099481E3,3.5752052E1,1.8083504E2,3.9814724E3,7.048508E2,5.4171016E3,3.2674857E2,4.114701E3,3.3951163E2,3.40434E1,3.4073822E2,1.561832E2,4.2730317E0,5.9492744E3,5.496541E3,7.982173E2,6.0141296E2,2.0934421E3,2.2868558E2,6.188445E2,1.2895438E4,1.6849238E5,2.2072828E4,8.4374516E4,2.1075664E4,2.4082377E5,3.301995E4,3.6005854E3,1.6191339E3,2.9800872E3,1.0557241E3,2.2232957E3,1.642542E4,2.6658052E3,8.6643665E2,4.10237E2,1.1277985E5,1.469473E2,1.4349584E3,1.0244379E2,2.6966275E2,6.5903174E3,1.6264761E2,2.4592273E3,3.375476E2],"tree_param":{"num_deleted":"0","num_feature":"12","num_nodes":"127","size_leaf_vector":"1"}},{"base_weights":[-2.5857352E-3,3.307417E-1,-2.4977668E-1,3.7778252E-1,-4.4194292E-2,-1.3166362E-1,-7.344436E-1,3.2432815E-1,6.8271434E-1,-1.390393E-1,3.9782372E-1,6.593265E-1,-1.7233755E-1,-7.949706E-1,-2.3795865E-2,6.472172E-2,3.704914E-1,7.778181E-1,3.316703E-1,-8.522534E-2,-6.583514E-1,4.6014866E-1,-8.51842E-1,6.0348356E-1,7.044435E-1,-9.298137E-3,-3.476957E-1,-5.8325577E-1,-8.365619E-1,5.9898984E-1,-1.5493783E-1,4.193766E-1,-1.5396002E-1,1.2260809E0,3.5945556E-1,8.547515E-2,8.0644685E-1,3.8732567E-1,-5.1186997E-1,9.403979E-1,-1.0543902E-1,3.7095508E-1,-7.081326E-1,6.8209195E-1,1.6800778E-1,-7.93941E-1,-9.8211795E-1,6.5334684E-1,4.3771356E-1,6.844358E-1,8.356329E-1,1.2337848E-1,-2.5280797E-1,-3.7062883E-1,8.093293E-1,-4.5712125E-1,-6.376683E-1,-6.150838E-1,-8.435361E-1,6.291476E-1,4.6879387E-1,-9.191485E-3,-5.140878E-1,3.762298E-2,1.6466916E-2,2.9789409E-2,-1.0849941E-2,3.5660833E-2,1.34947E-1,2.0145504E-2,6.1572115E-3,2.6528833E-3,6.27541E-2,4.317549E-2,1.954161E-2,1.6111871E-2,4.0287875E-2,7.0723616E-2,-2.6472846E-2,3.634679E-2,6.8089224E-2,-7.5715706E-3,1.7417692E-2,8.0903046E-2,5.0637163E-3,-3.855496E-2,-1.7891204E-2,3.1361863E-2,7.789422E-2,1.0822943E-2,-2.1677991E-2,-2.9253498E-2,-4.0658124E-2,-5.0239187E-2,-7.1399375E-3,2.957432E-2,3.5860006E-2,1.6730493E-2,2.9173603E-2,3.2890633E-2,3.9660405E-2,5.2595355E-2,4.067811E-2,1.020114E-2,-1.3156339E-2,3.1173646E-3,-2.1409987E-2,-1.5577957E-2,-2.966176E-2,6.904395E-2,-2.7183473E-2,-1.9196501E-2,-3.562547E-2,-3.3096265E-2,-1.4605212E-2,-2.556926E-2,-4.6953212E-2,-4.2446513E-2,-3.7229426E-2,3.773295E-2,3.0026942E-2,1.4818693E-2,2.662141E-2,-1.4587653E-2,9.835356E-3,-3.176377E-2,1.666527E-2],"categories":[],"categories_nodes":[],"categories_segments":[],"categories_sizes":[],"default_left":[0,0,0,0,0,0,0,0,0,0,0,0,0,0,0,0,0,0,0,0,0,0,0,0,0,0,0,0,0,0,0,0,0,0,0,0,0,0,0,0,0,0,0,0,0,0,0,0,0,0,0,0,0,0,0,0,0,0,0,0,0,0,0,0,0,0,0,0,0,0,0,0,0,0,0,0,0,0,0,0,0,0,0,0,0,0,0,0,0,0,0,0,0,0,0,0,0,0,0,0,0,0,0,0,0,0,0,0,0,0,0,0,0,0,0,0,0,0,0,0,0,0,0,0,0,0,0],"id":9,"left_children":[1,3,5,7,9,11,13,15,17,19,21,23,25,27,29,31,33,35,37,39,41,43,45,47,49,51,53,55,57,59,61,63,65,67,69,71,73,75,77,79,81,83,85,87,89,91,93,95,97,99,101,103,105,107,109,111,113,115,117,119,121,123,125,-1,-1,-1,-1,-1,-1,-1,-1,-1,-1,-1,-1,-1,-1,-1,-1,-1,-1,-1,-1,-1,-1,-1,-1,-1,-1,-1,-1,-1,-1,-1,-1,-1,-1,-1,-1,-1,-1,-1,-1,-1,-1,-1,-1,-1,-1,-1,-1,-1,-1,-1,-1,-1,-1,-1,-1,-1,-1,-1,-1,-1,-1,-1,-1],"loss_changes":[1.07124445E5,9.764152E3,4.2734664E4,8.0176016E3,2.5873655E3,1.931146E4,6.291883E3,5.015715E3,2.449125E3,1.4199827E3,8.495941E2,7.353613E1,1.6321793E4,1.1864688E3,9.378581E2,4.900698E3,3.3547266E3,1.1441211E3,7.345034E2,9.546504E2,2.4472876E2,6.7329614E2,3.1298523E0,1.0820801E2,4.2032227E1,9.557886E3,7.298582E3,1.5163477E2,1.735E2,7.5477295E0,4.9651062E2,7.2255664E2,1.8475315E3,3.415833E3,3.602414E3,8.6887344E1,1.3143398E3,3.9937183E2,3.3561035E1,7.9066895E1,9.424679E2,7.408044E1,1.0011426E2,2.8255005E2,1.3082216E2,9.8579407E-1,2.8101501E0,3.9424805E1,4.5463684E1,4.0277344E1,9.375122E0,5.9689434E3,5.76737E3,3.5462656E3,4.1349185E3,1.2449365E2,1.2941699E2,1.1519226E2,5.7664062E1,5.359619E0,4.0068893E0,3.9267053E2,2.8139838E2,0E0,0E0,0E0,0E0,0E0,0E0,0E0,0E0,0E0,0E0,0E0,0E0,0E0,0E0,0E0,0E0,0E0,0E0,0E0,0E0,0E0,0E0,0E0,0E0,0E0,0E0,0E0,0E0,0E0,0E0,0E0,0E0,0E0,0E0,0E0,0E0,0E0,0E0,0E0,0E0,0E0,0E0,0E0,0E0,0E0,0E0,0E0,0E0,0E0,0E0,0E0,0E0,0E0,0E0,0E0,0E0,0E0,0E0,0E0,0E0,0E0,0E0,0E0,0E0],"parents":[2147483647,0,0,1,1,2,2,3,3,4,4,5,5,6,6,7,7,8,8,9,9,10,10,11,11,12,12,13,13,14,14,15,15,16,16,17,17,18,18,19,19,20,20,21,21,22,22,23,23,24,24,25,25,26,26,27,27,28,28,29,29,30,30,31,31,32,32,33,33,34,34,35,35,36,36,37,37,38,38,39,39,40,40,41,41,42,42,43,43,44,44,45,45,46,46,47,47,48,48,49,49,50,50,51,51,52,52,53,53,54,54,55,55,56,56,57,57,58,58,59,59,60,60,61,61,62,62],"right_children":[2,4,6,8,10,12,14,16,18,20,22,24,26,28,30,32,34,36,38,40,42,44,46,48,50,52,54,56,58,60,62,64,66,68,70,72,74,76,78,80,82,84,86,88,90,92,94,96,98,100,102,104,106,108,110,112,114,116,118,120,122,124,126,-1,-1,-1,-1,-1,-1,-1,-1,-1,-1,-1,-1,-1,-1,-1,-1,-1,-1,-1,-1,-1,-1,-1,-1,-1,-1,-1,-1,-1,-1,-1,-1,-1,-1,-1,-1,-1,-1,-1,-1,-1,-1,-1,-1,-1,-1,-1,-1,-1,-1,-1,-1,-1,-1,-1,-1,-1,-1,-1,-1,-1,-1,-1,-1],"split_conditions":[1.3E1,1.09E2,1.41E2,3.1E1,1.3E1,1E0,1.52E2,3E0,1E0,2E0,3E0,1E1,5E0,1E0,1E0,3E0,2E0,3.6E1,8E0,1E0,7.5E1,1.71E2,1.59E2,2.4E1,1.426E3,1.7E1,5E0,1E1,5E0,1.64E2,2.1E1,5.79E2,2E0,3.6E1,1E0,5.3E1,9E0,3E1,3.4E1,1.74E2,3.1E1,3E0,2.18E2,1.04E2,2.9E1,2.1E1,3E1,6.89E2,6.4E1,1.01E2,6E0,2E0,1.81E2,7E0,3.3E1,1.034E3,1.46E2,5E0,2.5E1,9E0,8E0,3E1,3.4E1,3.762298E-2,1.6466916E-2,2.9789409E-2,-1.0849941E-2,3.5660833E-2,1.34947E-1,2.0145504E-2,6.1572115E-3,2.6528833E-3,6.27541E-2,4.317549E-2,1.954161E-2,1.6111871E-2,4.0287875E-2,7.0723616E-2,-2.6472846E-2,3.634679E-2,6.8089224E-2,-7.5715706E-3,1.7417692E-2,8.0903046E-2,5.0637163E-3,-3.855496E-2,-1.7891204E-2,3.1361863E-2,7.789422E-2,1.0822943E-2,-2.1677991E-2,-2.9253498E-2,-4.0658124E-2,-5.0239187E-2,-7.1399375E-3,2.957432E-2,3.5860006E-2,1.6730493E-2,2.9173603E-2,3.2890633E-2,3.9660405E-2,5.2595355E-2,4.067811E-2,1.020114E-2,-1.3156339E-2,3.1173646E-3,-2.1409987E-2,-1.5577957E-2,-2.966176E-2,6.904395E-2,-2.7183473E-2,-1.9196501E-2,-3.562547E-2,-3.3096265E-2,-1.4605212E-2,-2.556926E-2,-4.6953212E-2,-4.2446513E-2,-3.7229426E-2,3.773295E-2,3.0026942E-2,1.4818693E-2,2.662141E-2,-1.4587653E-2,9.835356E-3,-3.176377E-2,1.666527E-2],"split_indices":[11,10,10,3,9,4,10,9,5,5,5,9,9,5,3,8,11,7,11,4,7,6,10,11,6,3,2,0,9,10,3,6,11,7,5,9,11,10,3,7,3,9,7,6,3,3,3,6,10,10,0,4,7,3,11,6,10,3,3,0,0,11,3,0,0,0,0,0,0,0,0,0,0,0,0,0,0,0,0,0,0,0,0,0,0,0,0,0,0,0,0,0,0,0,0,0,0,0,0,0,0,0,0,0,0,0,0,0,0,0,0,0,0,0,0,0,0,0,0,0,0,0,0,0,0,0,0],"split_type":[0,0,0,0,0,0,0,0,0,0,0,0,0,0,0,0,0,0,0,0,0,0,0,0,0,0,0,0,0,0,0,0,0,0,0,0,0,0,0,0,0,0,0,0,0,0,0,0,0,0,0,0,0,0,0,0,0,0,0,0,0,0,0,0,0,0,0,0,0,0,0,0,0,0,0,0,0,0,0,0,0,0,0,0,0,0,0,0,0,0,0,0,0,0,0,0,0,0,0,0,0,0,0,0,0,0,0,0,0,0,0,0,0,0,0,0,0,0,0,0,0,0,0,0,0,0,0],"sum_hessian":[1.3001225E6,5.5360594E5,7.4651656E5,4.918915E5,6.1714473E4,6.0023975E5,1.4627683E5,4.185262E5,7.3365305E4,5.081224E4,1.0902233E4,2.9354986E4,5.7088475E5,1.3479592E5,1.1480901E4,6.318687E4,3.553393E5,5.7725324E4,1.5639978E4,4.6042254E4,4.769985E3,1.0384935E4,5.1729913E2,1.3124586E4,1.62304E4,2.9583397E5,2.750508E5,2.213514E4,1.1266078E5,1.996425E3,9.484476E3,2.4100352E4,3.908652E4,4.523574E3,3.5081575E5,2.292349E3,5.5432977E4,1.4672455E4,9.675229E2,8.890134E2,4.515324E4,2.1975467E2,4.55023E3,5.9007344E3,4.4841997E3,3.630405E2,1.5425862E2,1.0087379E4,3.037207E3,1.4088048E4,2.1423518E3,1.9149706E5,1.043369E5,2.6970572E5,5.3450957E3,6.673835E3,1.5461306E4,3.4420107E3,1.0921877E5,1.6178452E3,3.7857993E2,6.747361E3,2.7371152E3,5.12688E3,1.8973473E4,3.0308481E3,3.605567E4,3.3563455E3,1.1672285E3,2.9632484E5,5.4490902E4,2.231544E3,6.080535E1,4.8740016E4,6.692963E3,1.2698879E4,1.9735759E3,8.034706E0,9.5948816E2,5.918995E2,2.9711395E2,4.099865E4,4.154591E3,3.8182846E1,1.8157182E2,3.8559397E3,6.9429047E2,5.5545454E3,3.4618915E2,4.1505493E3,3.3365076E2,3.324289E1,3.297976E2,1.5001045E2,4.2481623E0,5.1288525E3,4.958527E3,1.7808213E3,1.2563856E3,1.1323544E4,2.7645046E3,1.9406068E2,1.9482911E3,1.5843919E5,3.305787E4,3.7305184E4,6.703172E4,2.131482E5,5.6557523E4,3.7577021E3,1.5873934E3,5.1891797E3,1.4846549E3,1.4446325E4,1.0149804E3,2.6093855E3,8.326253E2,1.03565336E5,5.653436E3,2.9560388E2,1.3222413E3,1.0358078E2,2.7499915E2,2.8440112E3,3.9033494E3,2.3948699E3,3.422453E2],"tree_param":{"num_deleted":"0","num_feature":"12","num_nodes":"127","size_leaf_vector":"1"}},{"base_weights":[-2.6646538E-3,3.1054768E-1,-2.4003354E-1,3.541509E-1,-4.2199496E-2,-1.259212E-1,-7.2019756E-1,3.0448776E-1,6.347826E-1,-1.3292468E-1,3.7223548E-1,6.128846E-1,-1.650008E-1,-7.8150403E-1,-2.281088E-2,6.127291E-2,3.4724694E-1,7.213699E-1,3.1134078E-1,-8.128813E-2,-6.4313453E-1,4.296237E-1,-8.3808684E-1,6.154748E-1,-2.509315E-1,-8.908992E-3,-3.3516556E-1,-5.679511E-1,-8.239257E-1,5.576954E-1,-1.4826344E-1,3.9247614E-1,-1.4725208E-1,5.021978E-1,2.951638E-1,8.094291E-2,7.472974E-1,3.6285684E-1,-4.967462E-1,8.6442375E-1,-1.0061588E-1,3.4775683E-1,-6.9312716E-1,6.3183445E-1,1.5854926E-1,-7.79182E-1,-9.7165734E-1,5.673081E-1,6.5402436E-1,-1.09554134E-1,-4.8102465E-1,1.1663294E-1,-2.4273607E-1,-3.9935067E-1,6.1183836E-2,-3.9065662E-1,-6.0687965E-1,-5.998169E-1,-8.3105403E-1,5.85236E-1,4.3824264E-1,-8.790515E-3,-4.9918088E-1,2.2584004E-2,-3.172118E-3,2.7720077E-2,-1.0398358E-2,7.2313854E-3,3.9919794E-2,1.9745974E-2,-1.8147224E-3,2.5153214E-3,5.7095706E-2,3.9953075E-2,1.8296931E-2,1.3306863E-2,3.090859E-2,6.443832E-2,-2.5709538E-2,4.80479E-2,4.3104803E-3,-7.236467E-3,1.6337138E-2,7.2697185E-2,4.79308E-3,-3.783819E-2,-1.7254496E-2,2.9099941E-2,7.032231E-2,1.0196389E-2,-2.095732E-2,-2.848804E-2,-3.9931867E-2,-4.974965E-2,-6.8831006E-3,3.0366028E-2,2.147E-2,3.8390692E-2,3.171445E-2,3.30723E-3,-1.291149E-2,-7.173385E-3,-4.438534E-2,9.615458E-3,-1.263161E-2,-1.7921146E-2,1.0389265E-2,-1.7297372E-2,-3.0199358E-2,-2.7581565E-3,3.8482223E-2,-1.35554345E-2,-3.6959063E-2,-1.9591065E-2,-3.1828735E-2,-2.4817262E-2,-4.6461046E-2,-4.1828256E-2,-3.652049E-2,3.814037E-2,2.8321836E-2,1.3937897E-2,2.4832338E-2,-2.2985048E-3,7.148382E-2,-3.0993551E-2,1.5626898E-2],"categories":[],"categories_nodes":[],"categories_segments":[],"categories_sizes":[],"default_left":[0,0,0,0,0,0,0,0,0,0,0,0,0,0,0,0,0,0,0,0,0,0,0,0,0,0,0,0,0,0,0,0,0,0,0,0,0,0,0,0,0,0,0,0,0,0,0,0,0,0,0,0,0,0,0,0,0,0,0,0,0,0,0,0,0,0,0,0,0,0,0,0,0,0,0,0,0,0,0,0,0,0,0,0,0,0,0,0,0,0,0,0,0,0,0,0,0,0,0,0,0,0,0,0,0,0,0,0,0,0,0,0,0,0,0,0,0,0,0,0,0,0,0,0,0,0,0],"id":10,"left_children":[1,3,5,7,9,11,13,15,17,19,21,23,25,27,29,31,33,35,37,39,41,43,45,47,49,51,53,55,57,59,61,63,65,67,69,71,73,75,77,79,81,83,85,87,89,91,93,95,97,99,101,103,105,107,109,111,113,115,117,119,121,123,125,-1,-1,-1,-1,-1,-1,-1,-1,-1,-1,-1,-1,-1,-1,-1,-1,-1,-1,-1,-1,-1,-1,-1,-1,-1,-1,-1,-1,-1,-1,-1,-1,-1,-1,-1,-1,-1,-1,-1,-1,-1,-1,-1,-1,-1,-1,-1,-1,-1,-1,-1,-1,-1,-1,-1,-1,-1,-1,-1,-1,-1,-1,-1,-1],"loss_changes":[9.653921E4,8.610469E3,4.047434E4,6.943629E3,2.3157007E3,1.7232307E4,6.064297E3,4.402328E3,2.0977734E3,1.3311025E3,7.6864404E2,6.7243164E1,1.5056555E4,1.1806719E3,8.348541E2,4.371539E3,2.9053398E3,9.8114453E2,6.588131E2,8.3878345E2,2.3026892E2,5.787938E2,3.1852722E0,5.513867E1,2.8864713E0,8.6790625E3,6.8993887E3,1.4891504E2,1.7327344E2,6.4453735E0,4.6135562E2,6.601157E2,1.6548287E3,9.592123E3,8.909461E3,7.4714584E1,1.1208398E3,3.6712683E2,3.0208939E1,6.896185E1,8.477633E2,6.219032E1,9.765137E1,2.3267334E2,1.1840742E2,9.822693E-1,2.7686005E0,7.3114746E1,3.6788574E1,1.5128441E0,4.552773E0,5.375825E3,5.3832275E3,2.5505156E3,3.1156973E3,1.6202527E2,1.128999E2,1.13947266E2,5.7859375E1,5.0842896E0,3.4538422E0,3.608752E2,2.6283765E2,0E0,0E0,0E0,0E0,0E0,0E0,0E0,0E0,0E0,0E0,0E0,0E0,0E0,0E0,0E0,0E0,0E0,0E0,0E0,0E0,0E0,0E0,0E0,0E0,0E0,0E0,0E0,0E0,0E0,0E0,0E0,0E0,0E0,0E0,0E0,0E0,0E0,0E0,0E0,0E0,0E0,0E0,0E0,0E0,0E0,0E0,0E0,0E0,0E0,0E0,0E0,0E0,0E0,0E0,0E0,0E0,0E0,0E0,0E0,0E0,0E0,0E0,0E0,0E0],"parents":[2147483647,0,0,1,1,2,2,3,3,4,4,5,5,6,6,7,7,8,8,9,9,10,10,11,11,12,12,13,13,14,14,15,15,16,16,17,17,18,18,19,19,20,20,21,21,22,22,23,23,24,24,25,25,26,26,27,27,28,28,29,29,30,30,31,31,32,32,33,33,34,34,35,35,36,36,37,37,38,38,39,39,40,40,41,41,42,42,43,43,44,44,45,45,46,46,47,47,48,48,49,49,50,50,51,51,52,52,53,53,54,54,55,55,56,56,57,57,58,58,59,59,60,60,61,61,62,62],"right_children":[2,4,6,8,10,12,14,16,18,20,22,24,26,28,30,32,34,36,38,40,42,44,46,48,50,52,54,56,58,60,62,64,66,68,70,72,74,76,78,80,82,84,86,88,90,92,94,96,98,100,102,104,106,108,110,112,114,116,118,120,122,124,126,-1,-1,-1,-1,-1,-1,-1,-1,-1,-1,-1,-1,-1,-1,-1,-1,-1,-1,-1,-1,-1,-1,-1,-1,-1,-1,-1,-1,-1,-1,-1,-1,-1,-1,-1,-1,-1,-1,-1,-1,-1,-1,-1,-1,-1,-1,-1,-1,-1,-1,-1,-1,-1,-1,-1,-1,-1,-1,-1,-1,-1,-1,-1,-1],"split_conditions":[1.3E1,1.09E2,1.41E2,3.1E1,1.3E1,1E0,1.52E2,3E0,1E0,2E0,3E0,5.2E1,5E0,1E0,1E0,3E0,4E0,3.6E1,8E0,1E0,7.5E1,1.71E2,1.59E2,1E1,2.093E3,1.7E1,3E1,8E0,5E0,1.64E2,2.1E1,2.2E1,2E0,1.8E1,1.8E1,5.3E1,9E0,1.6E1,3.4E1,1.66E2,3.1E1,3E0,2.18E2,1.04E2,2.9E1,2.1E1,3E1,2.4E1,1.1E1,1E0,6.3E1,2E0,3.4E1,2E1,5E0,1.034E3,1E0,5E0,2.5E1,3E0,8E0,5E0,3.4E1,2.2584004E-2,-3.172118E-3,2.7720077E-2,-1.0398358E-2,7.2313854E-3,3.9919794E-2,1.9745974E-2,-1.8147224E-3,2.5153214E-3,5.7095706E-2,3.9953075E-2,1.8296931E-2,1.3306863E-2,3.090859E-2,6.443832E-2,-2.5709538E-2,4.80479E-2,4.3104803E-3,-7.236467E-3,1.6337138E-2,7.2697185E-2,4.79308E-3,-3.783819E-2,-1.7254496E-2,2.9099941E-2,7.032231E-2,1.0196389E-2,-2.095732E-2,-2.848804E-2,-3.9931867E-2,-4.974965E-2,-6.8831006E-3,3.0366028E-2,2.147E-2,3.8390692E-2,3.171445E-2,3.30723E-3,-1.291149E-2,-7.173385E-3,-4.438534E-2,9.615458E-3,-1.263161E-2,-1.7921146E-2,1.0389265E-2,-1.7297372E-2,-3.0199358E-2,-2.7581565E-3,3.8482223E-2,-1.35554345E-2,-3.6959063E-2,-1.9591065E-2,-3.1828735E-2,-2.4817262E-2,-4.6461046E-2,-4.1828256E-2,-3.652049E-2,3.814037E-2,2.8321836E-2,1.3937897E-2,2.4832338E-2,-2.2985048E-3,7.148382E-2,-3.0993551E-2,1.5626898E-2],"split_indices":[11,10,10,3,9,4,10,9,5,5,5,11,9,5,3,8,11,7,11,4,7,6,10,9,6,3,9,0,9,10,3,3,11,3,3,9,11,0,3,10,3,9,7,6,3,3,3,11,9,10,10,4,3,3,2,6,8,3,3,9,0,2,3,0,0,0,0,0,0,0,0,0,0,0,0,0,0,0,0,0,0,0,0,0,0,0,0,0,0,0,0,0,0,0,0,0,0,0,0,0,0,0,0,0,0,0,0,0,0,0,0,0,0,0,0,0,0,0,0,0,0,0,0,0,0,0,0],"split_type":[0,0,0,0,0,0,0,0,0,0,0,0,0,0,0,0,0,0,0,0,0,0,0,0,0,0,0,0,0,0,0,0,0,0,0,0,0,0,0,0,0,0,0,0,0,0,0,0,0,0,0,0,0,0,0,0,0,0,0,0,0,0,0,0,0,0,0,0,0,0,0,0,0,0,0,0,0,0,0,0,0,0,0,0,0,0,0,0,0,0,0,0,0,0,0,0,0,0,0,0,0,0,0,0,0,0,0,0,0,0,0,0,0,0,0,0,0,0,0,0,0,0,0,0,0,0,0],"sum_hessian":[1.2984954E6,5.598126E5,7.3868275E5,4.9822666E5,6.1585973E4,5.968427E5,1.4184008E5,4.2331506E5,7.49116E4,5.0525883E4,1.1060091E4,2.9983584E4,5.668591E5,1.3037853E5,1.1461548E4,6.3294945E4,3.6002012E5,5.9091273E4,1.5820323E4,4.5883348E4,4.642533E3,1.0560025E4,5.0006546E2,2.9894232E4,8.935266E1,2.9565575E5,2.7120334E5,2.1609484E4,1.0876905E5,2.0361646E3,9.425383E3,2.4453777E4,3.8841168E4,9.056735E4,2.6945275E5,2.2993647E3,5.679191E4,1.4872729E4,9.475947E2,9.1807294E2,4.4965273E4,2.2268997E2,4.4198433E3,6.0474995E3,4.5125264E3,3.5176843E2,1.4829701E2,1.3296408E4,1.6597824E4,5.6260406E1,3.309226E1,1.9237172E5,1.0328402E5,2.334055E5,3.779785E4,3.892534E3,1.7716951E4,3.3556619E3,1.0541338E5,1.6515006E3,3.8466388E2,6.7454243E3,2.679959E3,2.1643271E4,2.8105063E3,3.0926653E3,3.5748504E4,4.103338E4,4.9533973E4,2.0711827E5,6.23345E4,2.23585E3,6.3514725E1,5.000354E4,6.7883726E3,1.0788008E4,4.084721E3,8.4633255E0,9.391314E2,8.165487E2,1.01524284E2,4.0758684E4,4.206593E3,4.041913E1,1.8227084E2,3.7356296E3,6.842137E2,5.68359E3,3.6390967E2,4.184479E3,3.280475E2,3.2475925E1,3.192925E2,1.4407274E2,4.22428E0,1.0303549E4,2.9928596E3,2.4475996E3,1.4150224E4,2.6041155E1,3.0219252E1,1.8822151E1,1.4270106E1,1.5965328E5,3.2718441E4,8.218134E4,2.1102682E4,1.8510264E5,4.830286E4,3.2466896E4,5.330955E3,2.899686E3,9.928478E2,2.151256E3,1.5565694E4,2.5554548E3,8.00207E2,9.993389E4,5.4794907E3,1.5431522E2,1.4971854E3,1.0465484E2,2.8000906E2,6.576414E3,1.6901035E2,2.3332734E3,3.4668552E2],"tree_param":{"num_deleted":"0","num_feature":"12","num_nodes":"127","size_leaf_vector":"1"}},{"base_weights":[-2.7297449E-3,2.918426E-1,-2.3059118E-1,3.3233374E-1,-4.0287375E-2,-1.2040129E-1,-7.059697E-1,2.8610367E-1,5.913494E-1,-1.2705025E-1,3.4870377E-1,5.707379E-1,-1.5793186E-1,-7.680012E-1,-2.1849455E-2,4.0461954E-1,2.0956138E-1,6.7051375E-1,2.924989E-1,-7.75204E-2,-6.279978E-1,4.0166548E-1,-8.243642E-1,5.7310534E-1,-2.4125847E-1,-8.533364E-3,-3.2292405E-1,-5.527663E-1,-8.112444E-1,5.201105E-1,-1.418772E-1,1.7932092E-1,5.057038E-1,4.5756552E-1,8.4710166E-2,2.539703E-1,7.046664E-1,3.4026477E-1,-4.8182738E-1,7.970064E-1,-9.599516E-2,3.2640055E-1,-6.781519E-1,5.8654916E-1,1.496828E-1,-7.644575E-1,-9.613105E-1,5.082579E-1,5.985237E-1,-1.04678676E-1,-4.6634322E-1,1.091819E-1,-2.3526734E-1,-3.8568455E-1,5.799048E-2,-3.7733003E-1,-5.916421E-1,-5.8464205E-1,-8.1852657E-1,5.453523E-1,4.1017696E-1,-8.38169E-3,-4.8447263E-1,-2.8394578E-2,1.1167805E-2,3.1541087E-2,1.34732025E-2,3.3255909E-3,3.7795816E-2,-4.74501E-3,1.4681174E-2,1.1136549E-2,1.0994015E-1,3.777642E-2,1.7148849E-2,1.4045318E-2,3.580245E-2,-2.5261542E-2,3.7964318E-2,3.0741652E-2,5.735105E-2,-6.9144256E-3,1.5336799E-2,6.2240865E-2,3.3985258E-3,-3.712107E-2,-1.663244E-2,2.7052794E-2,6.390458E-2,9.610964E-3,-2.0250773E-2,-2.7730364E-2,-3.9207097E-2,-4.926691E-2,-6.6347043E-3,2.433866E-2,3.3641484E-2,3.0284373E-2,1.9648291E-2,3.1405461E-3,-1.2401407E-2,-6.867481E-3,-4.36434E-2,2.4835067E-3,2.7697643E-2,5.958232E-3,-1.9332327E-2,-1.6666379E-2,-2.9425833E-2,-2.6261E-3,3.5746474E-2,-1.3023232E-2,-3.6246296E-2,-1.8917965E-2,-3.107028E-2,-2.407475E-2,-4.596873E-2,-2.114898E-2,-4.0999856E-2,3.540183E-2,2.6402658E-2,1.3571823E-2,2.3554849E-2,-1.40445335E-2,9.331941E-3,-3.0227304E-2,1.4666016E-2],"categories":[],"categories_nodes":[],"categories_segments":[],"categories_sizes":[],"default_left":[0,0,0,0,0,0,0,0,0,0,0,0,0,0,0,0,0,0,0,0,0,0,0,0,0,0,0,0,0,0,0,0,0,0,0,0,0,0,0,0,0,0,0,0,0,0,0,0,0,0,0,0,0,0,0,0,0,0,0,0,0,0,0,0,0,0,0,0,0,0,0,0,0,0,0,0,0,0,0,0,0,0,0,0,0,0,0,0,0,0,0,0,0,0,0,0,0,0,0,0,0,0,0,0,0,0,0,0,0,0,0,0,0,0,0,0,0,0,0,0,0,0,0,0,0,0,0],"id":11,"left_children":[1,3,5,7,9,11,13,15,17,19,21,23,25,27,29,31,33,35,37,39,41,43,45,47,49,51,53,55,57,59,61,63,65,67,69,71,73,75,77,79,81,83,85,87,89,91,93,95,97,99,101,103,105,107,109,111,113,115,117,119,121,123,125,-1,-1,-1,-1,-1,-1,-1,-1,-1,-1,-1,-1,-1,-1,-1,-1,-1,-1,-1,-1,-1,-1,-1,-1,-1,-1,-1,-1,-1,-1,-1,-1,-1,-1,-1,-1,-1,-1,-1,-1,-1,-1,-1,-1,-1,-1,-1,-1,-1,-1,-1,-1,-1,-1,-1,-1,-1,-1,-1,-1,-1,-1,-1,-1],"loss_changes":[8.7039945E4,7.6061367E3,3.829984E4,6.0363516E3,2.0743267E3,1.5396873E4,5.838797E3,3.880461E3,1.8061055E3,1.2468098E3,6.9670264E2,5.8910156E1,1.3877917E4,1.1736797E3,7.4421106E2,3.822795E3,8.0478516E3,8.5849805E2,5.9161206E2,7.3895544E2,2.166466E2,4.995724E2,3.2401123E0,4.994336E1,2.7050977E0,7.8860723E3,6.3959727E3,1.437373E2,1.7285156E2,5.5324707E0,4.283532E2,1.7107812E3,3.424754E3,1.0154139E4,6.487112E3,2.77493E2,1.0259785E3,3.3578113E2,2.7383255E1,5.9629578E1,7.6289087E2,5.3653847E1,9.514636E1,1.9392041E2,1.0720562E2,9.7766113E-1,2.7276154E0,3.0047852E1,3.200244E1,1.3851101E0,4.3659253E0,5.1480156E3,5.4177847E3,2.4391055E3,2.7476724E3,1.5546161E2,1.0944043E2,1.1259961E2,5.884375E1,4.365265E0,3.1801376E0,3.5829422E2,2.4544647E2,0E0,0E0,0E0,0E0,0E0,0E0,0E0,0E0,0E0,0E0,0E0,0E0,0E0,0E0,0E0,0E0,0E0,0E0,0E0,0E0,0E0,0E0,0E0,0E0,0E0,0E0,0E0,0E0,0E0,0E0,0E0,0E0,0E0,0E0,0E0,0E0,0E0,0E0,0E0,0E0,0E0,0E0,0E0,0E0,0E0,0E0,0E0,0E0,0E0,0E0,0E0,0E0,0E0,0E0,0E0,0E0,0E0,0E0,0E0,0E0,0E0,0E0,0E0,0E0],"parents":[2147483647,0,0,1,1,2,2,3,3,4,4,5,5,6,6,7,7,8,8,9,9,10,10,11,11,12,12,13,13,14,14,15,15,16,16,17,17,18,18,19,19,20,20,21,21,22,22,23,23,24,24,25,25,26,26,27,27,28,28,29,29,30,30,31,31,32,32,33,33,34,34,35,35,36,36,37,37,38,38,39,39,40,40,41,41,42,42,43,43,44,44,45,45,46,46,47,47,48,48,49,49,50,50,51,51,52,52,53,53,54,54,55,55,56,56,57,57,58,58,59,59,60,60,61,61,62,62],"right_children":[2,4,6,8,10,12,14,16,18,20,22,24,26,28,30,32,34,36,38,40,42,44,46,48,50,52,54,56,58,60,62,64,66,68,70,72,74,76,78,80,82,84,86,88,90,92,94,96,98,100,102,104,106,108,110,112,114,116,118,120,122,124,126,-1,-1,-1,-1,-1,-1,-1,-1,-1,-1,-1,-1,-1,-1,-1,-1,-1,-1,-1,-1,-1,-1,-1,-1,-1,-1,-1,-1,-1,-1,-1,-1,-1,-1,-1,-1,-1,-1,-1,-1,-1,-1,-1,-1,-1,-1,-1,-1,-1,-1,-1,-1,-1,-1,-1,-1,-1,-1,-1,-1,-1,-1,-1,-1],"split_conditions":[1.3E1,1.09E2,1.41E2,3.1E1,1.3E1,1E0,1.52E2,3E0,1E0,2E0,3E0,5.2E1,5E0,1E0,1E0,3.5E1,3E0,7.3E1,8E0,1E0,7.5E1,1.71E2,1.59E2,1.44E2,2.093E3,2.1E1,3E1,8E0,5E0,1.64E2,2.1E1,2.6E1,1.3E1,1.8E1,1.2E2,8E0,7E0,3E1,2.9E1,1.74E2,3.1E1,2E0,2.18E2,1.04E2,2.9E1,2.1E1,3E1,1.7E1,4.9E1,1E0,6.3E1,1.3E2,2.4E1,2E1,5E0,1.034E3,1E0,5E0,2.97E2,3E0,7.17E2,3E1,3.4E1,-2.8394578E-2,1.1167805E-2,3.1541087E-2,1.34732025E-2,3.3255909E-3,3.7795816E-2,-4.74501E-3,1.4681174E-2,1.1136549E-2,1.0994015E-1,3.777642E-2,1.7148849E-2,1.4045318E-2,3.580245E-2,-2.5261542E-2,3.7964318E-2,3.0741652E-2,5.735105E-2,-6.9144256E-3,1.5336799E-2,6.2240865E-2,3.3985258E-3,-3.712107E-2,-1.663244E-2,2.7052794E-2,6.390458E-2,9.610964E-3,-2.0250773E-2,-2.7730364E-2,-3.9207097E-2,-4.926691E-2,-6.6347043E-3,2.433866E-2,3.3641484E-2,3.0284373E-2,1.9648291E-2,3.1405461E-3,-1.2401407E-2,-6.867481E-3,-4.36434E-2,2.4835067E-3,2.7697643E-2,5.958232E-3,-1.9332327E-2,-1.6666379E-2,-2.9425833E-2,-2.6261E-3,3.5746474E-2,-1.3023232E-2,-3.6246296E-2,-1.8917965E-2,-3.107028E-2,-2.407475E-2,-4.596873E-2,-2.114898E-2,-4.0999856E-2,3.540183E-2,2.6402658E-2,1.3571823E-2,2.3554849E-2,-1.40445335E-2,9.331941E-3,-3.0227304E-2,1.4666016E-2],"split_indices":[11,10,10,3,9,4,10,8,5,5,5,11,9,5,3,6,11,7,11,4,7,6,10,7,6,3,9,0,9,10,3,6,9,3,7,11,11,10,9,7,3,11,7,6,3,3,3,9,11,10,10,10,11,3,2,6,8,3,6,9,6,11,3,0,0,0,0,0,0,0,0,0,0,0,0,0,0,0,0,0,0,0,0,0,0,0,0,0,0,0,0,0,0,0,0,0,0,0,0,0,0,0,0,0,0,0,0,0,0,0,0,0,0,0,0,0,0,0,0,0,0,0,0,0,0,0,0],"split_type":[0,0,0,0,0,0,0,0,0,0,0,0,0,0,0,0,0,0,0,0,0,0,0,0,0,0,0,0,0,0,0,0,0,0,0,0,0,0,0,0,0,0,0,0,0,0,0,0,0,0,0,0,0,0,0,0,0,0,0,0,0,0,0,0,0,0,0,0,0,0,0,0,0,0,0,0,0,0,0,0,0,0,0,0,0,0,0,0,0,0,0,0,0,0,0,0,0,0,0,0,0,0,0,0,0,0,0,0,0,0,0,0,0,0,0,0,0,0,0,0,0,0,0,0,0,0,0],"sum_hessian":[1.2967468E6,5.655808E5,7.31166E5,5.0412156E5,6.145923E4,5.935792E5,1.3758683E5,4.2777312E5,7.634844E4,5.025151E4,1.120772E4,3.0571912E4,5.6300725E5,1.2614841E5,1.1438427E4,1.678597E5,2.599134E5,6.035846E4,1.5989973E4,4.5731125E4,4.520388E3,1.0724201E4,4.8351883E2,3.048333E4,8.858139E1,2.954667E5,2.6754056E5,2.1106873E4,1.0504153E5,2.0733445E3,9.365082E3,5.1988816E4,1.1587089E5,8.703153E4,1.7288188E5,4.5744507E3,5.578401E4,1.50614375E4,9.285347E2,9.452312E2,4.478589E4,2.2541353E2,4.2949746E3,6.184908E3,4.539293E3,3.4095267E2,1.4256616E2,8.589853E3,2.1893477E4,5.604111E1,3.2540276E1,1.944915E5,1.0097517E5,2.2969534E5,3.7845234E4,3.8306838E3,1.727619E4,3.2730564E3,1.0176848E5,1.6829597E3,3.903847E2,6.739858E3,2.6252244E3,2.8926638E3,4.9096152E4,7.575022E4,4.0120676E4,3.7664816E4,4.936672E4,9.296072E4,7.9921164E4,4.503231E3,7.1219666E1,4.890564E4,6.878369E3,1.3008395E4,2.0530427E3,9.119315E2,1.6603226E1,6.234819E2,3.2174936E2,4.0530215E4,4.255678E3,4.8661594E1,1.7675194E2,3.6203745E3,6.746003E2,5.8048193E3,3.800891E2,4.2166006E3,3.226922E2,3.1741344E1,3.092113E2,1.3836482E2,4.2013464E0,7.6014478E3,9.884049E2,2.1154293E4,7.391853E2,2.6103546E1,2.9937567E1,1.872462E1,1.3815655E1,1.7154002E5,2.2951486E4,3.0219918E4,7.075525E4,1.82571E5,4.712434E4,3.2396332E4,5.4489E3,2.868136E3,9.625479E2,2.1173235E3,1.5158866E4,2.5039182E3,7.691382E2,3.7800293E2,1.0139047E5,1.5792009E2,1.5250397E3,1.20778015E2,2.696067E2,2.8112124E3,3.9286458E3,2.2743408E3,3.508835E2],"tree_param":{"num_deleted":"0","num_feature":"12","num_nodes":"127","size_leaf_vector":"1"}},{"base_weights":[-2.7802307E-3,2.744661E-1,-2.2144084E-1,3.121246E-1,-3.8454235E-2,-1.15096E-1,-6.917232E-1,2.6901275E-1,5.518606E-1,-1.2140777E-1,3.2700688E-1,5.3235775E-1,-1.5112247E-1,-7.580457E-1,-5.710047E-2,4.114332E-2,3.0873454E-1,6.245175E-1,2.7501017E-1,-7.3914535E-2,-6.129453E-1,3.7598357E-1,-8.106595E-1,5.345283E-1,-2.3191316E-1,-8.171915E-3,-3.1099227E-1,-5.449977E-1,-8.004021E-1,4.868705E-1,-1.661584E-1,3.2865882E-1,-1.4654501E-1,3.44484E-1,1.12023495E-1,6.49669E-2,6.464857E-1,3.1937212E-1,-4.6711212E-1,1.216573E-1,-1.5517835E-1,3.066772E-1,-6.632072E-1,5.3778714E-1,1.2983447E-1,-7.4975896E-1,-9.510526E-1,4.7478133E-1,5.5789864E-1,-1.0000591E-1,-4.5199406E-1,1.03271045E-1,-2.2575895E-1,-3.723035E-1,5.4976195E-2,-3.5500515E-1,-5.872347E-1,-5.87115E-1,-8.0594325E-1,5.103157E-1,3.8433275E-1,-2.4208567E-1,3.9750037E-1,3.1057721E-2,1.2426013E-2,-1.0143258E-3,-2.3222635E-2,1.4468647E-2,2.2752337E-2,3.0774428E-2,1.584689E-4,1.8116384E-3,5.1270097E-2,3.4488074E-2,1.6087655E-2,1.1542137E-2,2.752063E-2,5.8523685E-2,-2.4227913E-2,1.47093935E-2,-1.6014365E-2,-4.6252715E-3,-3.3369888E-2,6.0511686E-2,4.2070383E-3,-3.6403373E-2,-1.6025195E-2,2.3698203E-2,4.4173833E-2,8.5985055E-3,-2.035415E-2,-2.6980704E-2,-3.8483296E-2,-4.8789687E-2,-6.394525E-3,2.2751063E-2,3.1263854E-2,1.09970765E-2,2.8091881E-2,2.9826148E-3,-1.1907684E-2,-6.573354E-3,-4.2911444E-2,8.614908E-3,-1.2052297E-2,3.7127906E-3,-1.9781267E-2,-2.1750782E-2,-9.99158E-3,-2.5001122E-3,3.3273086E-2,-1.2573783E-2,-3.5572063E-2,-3.1528704E-2,-2.5492996E-2,-2.385718E-2,-4.569952E-2,-4.0587645E-2,-3.5023566E-2,3.0845413E-2,2.429269E-2,1.1991338E-2,2.184621E-2,-6.5023014E-3,-2.5163908E-2,-2.2793105E-2,3.8183298E-2],"categories":[],"categories_nodes":[],"categories_segments":[],"categories_sizes":[],"default_left":[0,0,0,0,0,0,0,0,0,0,0,0,0,0,0,0,0,0,0,0,0,0,0,0,0,0,0,0,0,0,0,0,0,0,0,0,0,0,0,0,0,0,0,0,0,0,0,0,0,0,0,0,0,0,0,0,0,0,0,0,0,0,0,0,0,0,0,0,0,0,0,0,0,0,0,0,0,0,0,0,0,0,0,0,0,0,0,0,0,0,0,0,0,0,0,0,0,0,0,0,0,0,0,0,0,0,0,0,0,0,0,0,0,0,0,0,0,0,0,0,0,0,0,0,0,0,0],"id":12,"left_children":[1,3,5,7,9,11,13,15,17,19,21,23,25,27,29,31,33,35,37,39,41,43,45,47,49,51,53,55,57,59,61,63,65,67,69,71,73,75,77,79,81,83,85,87,89,91,93,95,97,99,101,103,105,107,109,111,113,115,117,119,121,123,125,-1,-1,-1,-1,-1,-1,-1,-1,-1,-1,-1,-1,-1,-1,-1,-1,-1,-1,-1,-1,-1,-1,-1,-1,-1,-1,-1,-1,-1,-1,-1,-1,-1,-1,-1,-1,-1,-1,-1,-1,-1,-1,-1,-1,-1,-1,-1,-1,-1,-1,-1,-1,-1,-1,-1,-1,-1,-1,-1,-1,-1,-1,-1,-1],"loss_changes":[7.850428E4,6.7286016E3,3.6207348E4,5.267367E3,1.8595017E3,1.3772728E4,5.61975E3,3.9099492E3,1.5623867E3,1.1669452E3,6.3254333E2,5.175586E1,1.2782702E4,1.0904219E3,7.496125E2,3.4604082E3,2.5868086E3,7.5632227E2,5.318522E2,7.245155E2,2.0378186E2,4.3322656E2,3.2938232E0,4.3070312E1,2.5338397E0,7.160453E3,5.9245605E3,1.6069336E2,1.18703125E2,4.8769226E0,4.5054483E2,5.9351733E2,1.557295E3,1.8965664E3,3.1003982E3,6.4143105E1,8.318164E2,3.115902E2,2.6604767E1,1.0204701E3,1.0337919E3,4.5929966E1,9.259973E1,1.4440173E2,9.771877E1,9.7177124E-1,2.6869278E0,2.5685913E1,2.9567383E1,1.2677004E0,4.1851816E0,4.641244E3,5.0971157E3,2.4460059E3,2.428233E3,1.3448615E2,5.468213E1,9.1481445E1,5.965625E1,4.170685E0,2.9105377E0,2.7139703E2,3.9089447E2,0E0,0E0,0E0,0E0,0E0,0E0,0E0,0E0,0E0,0E0,0E0,0E0,0E0,0E0,0E0,0E0,0E0,0E0,0E0,0E0,0E0,0E0,0E0,0E0,0E0,0E0,0E0,0E0,0E0,0E0,0E0,0E0,0E0,0E0,0E0,0E0,0E0,0E0,0E0,0E0,0E0,0E0,0E0,0E0,0E0,0E0,0E0,0E0,0E0,0E0,0E0,0E0,0E0,0E0,0E0,0E0,0E0,0E0,0E0,0E0,0E0,0E0,0E0,0E0],"parents":[2147483647,0,0,1,1,2,2,3,3,4,4,5,5,6,6,7,7,8,8,9,9,10,10,11,11,12,12,13,13,14,14,15,15,16,16,17,17,18,18,19,19,20,20,21,21,22,22,23,23,24,24,25,25,26,26,27,27,28,28,29,29,30,30,31,31,32,32,33,33,34,34,35,35,36,36,37,37,38,38,39,39,40,40,41,41,42,42,43,43,44,44,45,45,46,46,47,47,48,48,49,49,50,50,51,51,52,52,53,53,54,54,55,55,56,56,57,57,58,58,59,59,60,60,61,61,62,62],"right_children":[2,4,6,8,10,12,14,16,18,20,22,24,26,28,30,32,34,36,38,40,42,44,46,48,50,52,54,56,58,60,62,64,66,68,70,72,74,76,78,80,82,84,86,88,90,92,94,96,98,100,102,104,106,108,110,112,114,116,118,120,122,124,126,-1,-1,-1,-1,-1,-1,-1,-1,-1,-1,-1,-1,-1,-1,-1,-1,-1,-1,-1,-1,-1,-1,-1,-1,-1,-1,-1,-1,-1,-1,-1,-1,-1,-1,-1,-1,-1,-1,-1,-1,-1,-1,-1,-1,-1,-1,-1,-1,-1,-1,-1,-1,-1,-1,-1,-1,-1,-1,-1,-1,-1,-1,-1,-1],"split_conditions":[1.3E1,1.09E2,1.41E2,3.1E1,1.3E1,1E0,1.51E2,3E0,1E0,2E0,3E0,5.2E1,5E0,1E0,1E0,3E0,1E0,3.6E1,8E0,3E0,7.5E1,1E1,1.59E2,1.44E2,2.093E3,2.1E1,3E1,8E0,5E0,1.64E2,2.8E1,5.79E2,2.1E1,8.9E1,6E0,5.3E1,9E0,1.6E1,3.4E1,2.3E1,9E0,3E0,2.18E2,1E0,2.9E1,2.1E1,3E1,1.7E1,1E0,1E0,6.3E1,2E0,1.81E2,2.6E1,5E0,1.034E3,6.92E2,5E0,2.5E1,9E0,8E0,2.1E1,2.6E2,3.1057721E-2,1.2426013E-2,-1.0143258E-3,-2.3222635E-2,1.4468647E-2,2.2752337E-2,3.0774428E-2,1.584689E-4,1.8116384E-3,5.1270097E-2,3.4488074E-2,1.6087655E-2,1.1542137E-2,2.752063E-2,5.8523685E-2,-2.4227913E-2,1.47093935E-2,-1.6014365E-2,-4.6252715E-3,-3.3369888E-2,6.0511686E-2,4.2070383E-3,-3.6403373E-2,-1.6025195E-2,2.3698203E-2,4.4173833E-2,8.5985055E-3,-2.035415E-2,-2.6980704E-2,-3.8483296E-2,-4.8789687E-2,-6.394525E-3,2.2751063E-2,3.1263854E-2,1.09970765E-2,2.8091881E-2,2.9826148E-3,-1.1907684E-2,-6.573354E-3,-4.2911444E-2,8.614908E-3,-1.2052297E-2,3.7127906E-3,-1.9781267E-2,-2.1750782E-2,-9.99158E-3,-2.5001122E-3,3.3273086E-2,-1.2573783E-2,-3.5572063E-2,-3.1528704E-2,-2.5492996E-2,-2.385718E-2,-4.569952E-2,-4.0587645E-2,-3.5023566E-2,3.0845413E-2,2.429269E-2,1.1991338E-2,2.184621E-2,-6.5023014E-3,-2.5163908E-2,-2.2793105E-2,3.8183298E-2],"split_indices":[11,10,10,3,9,4,10,9,5,5,5,11,9,5,3,8,5,7,11,8,7,11,10,7,6,3,9,0,9,10,9,6,3,7,6,9,11,0,3,3,9,9,7,5,3,3,3,9,9,10,10,4,7,11,2,6,6,3,3,0,0,3,6,0,0,0,0,0,0,0,0,0,0,0,0,0,0,0,0,0,0,0,0,0,0,0,0,0,0,0,0,0,0,0,0,0,0,0,0,0,0,0,0,0,0,0,0,0,0,0,0,0,0,0,0,0,0,0,0,0,0,0,0,0,0,0,0],"split_type":[0,0,0,0,0,0,0,0,0,0,0,0,0,0,0,0,0,0,0,0,0,0,0,0,0,0,0,0,0,0,0,0,0,0,0,0,0,0,0,0,0,0,0,0,0,0,0,0,0,0,0,0,0,0,0,0,0,0,0,0,0,0,0,0,0,0,0,0,0,0,0,0,0,0,0,0,0,0,0,0,0,0,0,0,0,0,0,0,0,0,0,0,0,0,0,0,0,0,0,0,0,0,0,0,0,0,0,0,0,0,0,0,0,0,0,0,0,0,0,0,0,0,0,0,0,0,0],"sum_hessian":[1.2949599E6,5.709875E5,7.2397244E5,5.0965312E5,6.1334402E4,5.904544E5,1.3351805E5,4.3197322E5,7.76799E4,4.9988516E4,1.1345885E4,3.1122312E4,5.5933206E5,1.2088457E5,1.263347E4,6.412332E4,3.678499E5,6.153051E4,1.614939E4,4.558515E4,4.403368E3,1.0878245E4,4.6764035E2,3.1034473E4,8.783975E1,2.9529216E5,2.640399E5,2.0049867E4,1.0083471E5,2.1092512E3,1.0524218E4,2.5326096E4,3.8797227E4,3.1127862E5,5.657126E4,2.3246018E3,5.920591E4,1.5239015E4,9.1037524E2,1.3381162E4,3.2203986E4,2.2792935E2,4.1754385E3,6.562964E3,4.315281E3,3.305798E2,1.3706056E2,8.732031E3,2.2302441E4,5.583125E1,3.2008503E1,1.9527661E5,1.00015555E5,2.2615227E5,3.7887633E4,3.6482969E3,1.640157E4,2.556032E3,9.827867E4,1.7134868E3,3.9576456E2,9.275357E3,1.2488605E3,5.4451694E3,1.9880926E4,2.7769504E4,1.1027721E4,2.077348E5,1.0354383E5,1.0056043E4,4.651522E4,2.2580828E3,6.651922E1,5.224262E4,6.963288E3,1.1018846E4,4.2201685E3,8.899835E0,9.014754E2,9.624278E3,3.7568838E3,2.8694262E4,3.509724E3,4.416588E1,1.8376347E2,3.5100078E3,6.6543085E2,5.5421187E3,1.0208451E3,4.0019036E3,3.1337738E2,3.1038017E1,2.9954178E2,1.3288124E2,4.1793227E0,7.7221377E3,1.00989343E3,2.576029E2,2.2044838E4,